{"num_classes":2,"conv1/kernel":[[[0.29691144824028015,0.2367844581604004,0.1753007471561432,-0.07397907972335815,0.029109418392181396,0.2342526912689209,0.100160613656044,-0.19355374574661255,0.09411603212356567,-0.1353733390569687,0.34632378816604614,0.12677767872810364,0.23176436126232147,-0.1275421380996704,-0.11862917244434357,-0.2435268610715866]],[[0.19778195023536682,0.31985634565353394,-0.07247955352067947,-0.1425335854291916,-0.35852015018463135,0.016802482306957245,0.24557514488697052,-0.30317410826683044,-0.006669917143881321,0.12150014936923981,0.1198967769742012,0.10415980964899063,-0.08170551061630249,0.1951100379228592,-0.2997996211051941,-0.2884123623371124]],[[-0.13055507838726044,-0.25094980001449585,0.23893937468528748,0.26385992765426636,0.35331597924232483,0.24059437215328217,0.1389005184173584,-0.09856058657169342,0.29041817784309387,-0.06287842243909836,0.3471921384334564,0.27404341101646423,0.22452080249786377,0.23110303282737732,-0.1615585833787918,-0.19544175267219543]],[[0.30085891485214233,0.2688226103782654,0.008298474363982677,-0.24348163604736328,-0.3064500391483307,0.024218276143074036,-0.19529686868190765,-0.2402527779340744,-0.26427558064460754,0.33431974053382874,-0.28851431608200073,-0.21382685005664825,-0.2748776078224182,-0.2936047315597534,0.11969200521707535,-0.3189188539981842]],[[-0.03770473226904869,0.007318601477891207,-0.18938252329826355,-0.12408577650785446,0.29356086254119873,-0.12369981408119202,0.1894340068101883,0.34074845910072327,0.02371043711900711,-0.1868046671152115,-0.3341756761074066,-0.2724520266056061,-0.16844482719898224,-0.21435019373893738,-0.048505768179893494,-0.24297639727592468]],[[0.11468569189310074,0.23254120349884033,0.0826675295829773,-0.09118331223726273,0.057994294911623,0.08711889386177063,0.0990280881524086,0.1509624570608139,-0.22861629724502563,-0.17960159480571747,-0.2662044167518616,0.1725267618894577,0.13971038162708282,0.35089147090911865,-0.28662216663360596,0.3518730700016022]],[[-0.13803747296333313,0.07215278595685959,-0.20789283514022827,-0.18827342987060547,-0.1362505704164505,-0.12677675485610962,0.24706390500068665,0.19179251790046692,0.1566007286310196,-0.20429986715316772,-0.2550544738769531,-0.15997326374053955,0.11500684916973114,-0.0842861607670784,-0.030483262613415718,0.04876972362399101]]],"conv1/bias":[0.00622942391782999,-0.1795586347579956,-0.08819282054901123,-0.009233695454895496,1.11634344648337e-05,-0.16140812635421753,-0.02674112655222416,-0.0706164762377739,6.955209755687974e-06,-0.015248577110469341,4.518844889389584e-07,-0.09469731897115707,-0.09745650738477707,-0.0661507323384285,-0.010546027682721615,-0.13084514439105988],"conv2/kernel":[[[0.0764087662100792,-0.03898695111274719,0.05766002833843231,-0.10617966949939728,0.041158344596624374,0.011547330766916275,0.08384762704372406,-0.08234254270792007,-0.06377027183771133,0.07170608639717102,-0.04943699389696121,-0.030050618574023247,-0.07782403379678726,-0.05297200754284859,-0.0261821411550045,-0.09815304726362228,-0.054803162813186646,-0.024637732654809952,-0.029264891520142555,0.018736863508820534,-0.01906590163707733,0.09523484855890274,0.048252172768116,-0.02444027177989483,0.061364103108644485,0.09993115067481995,0.02797914855182171,-0.042484529316425323,-0.02705490216612816,-0.03739026188850403,0.10559981316328049,-0.018072767183184624],[0.05910048261284828,-0.09110894799232483,-0.12789899110794067,-0.001374320243485272,-0.02120020240545273,0.08143401890993118,0.10380414128303528,0.12030167132616043,-0.057694897055625916,0.04485173150897026,-0.07300688326358795,0.011977050453424454,0.039126671850681305,0.029815681278705597,-0.0015458286507055163,0.07071330398321152,-0.04991989582777023,-0.08237574249505997,-0.09259842336177826,-0.05331137776374817,-0.0797899141907692,0.10867175459861755,-0.026161275804042816,-0.09247294813394547,-0.044674620032310486,0.09066759794950485,0.06881076842546463,-0.0761171504855156,-0.04207149147987366,-0.01814143918454647,-0.016196010634303093,-0.09099755436182022],[0.014256332069635391,0.058668751269578934,-0.03026827797293663,0.07566159963607788,-0.0075056967325508595,-0.06160387396812439,-0.04609711840748787,-0.047458309680223465,0.0017135031521320343,0.13003788888454437,0.015172529965639114,0.06938721239566803,0.01629973016679287,0.10136495530605316,0.05781498923897743,0.0999029353260994,-0.014613785780966282,0.05612531304359436,-0.02670416608452797,0.05108946934342384,-0.06905248761177063,-0.03205230087041855,0.0736677497625351,0.04604845121502876,-0.07875831425189972,0.033582013100385666,-0.03227849304676056,-0.1075674444437027,-0.0018415978411212564,0.037642285227775574,0.024449864402413368,-0.0050959461368620396],[-0.10330890864133835,0.004268323071300983,-0.060543615370988846,0.07418084144592285,-0.08346415311098099,0.003082910319790244,-0.06696930527687073,-0.05681290104985237,0.010327441617846489,-0.04104435816407204,-0.02631618082523346,-0.07850728183984756,0.09870244562625885,-0.07826660573482513,-0.04079711437225342,0.006138897500932217,-0.0896674245595932,-0.021598106250166893,0.020791569724678993,0.01565694250166416,0.057238221168518066,0.03707112744450569,-0.0027578624431043863,0.03780519962310791,-0.059477146714925766,0.039956819266080856,0.01634521223604679,-0.1133367270231247,-0.06965252757072449,0.07398641109466553,0.04497060179710388,0.0044869547709822655],[0.054169729351997375,-0.11106855422258377,-0.06166511029005051,0.047964759171009064,0.08598770201206207,0.040210749953985214,-0.11413044482469559,-0.07688635587692261,-0.0789128839969635,0.01126441452652216,-0.07185344398021698,0.0029834716115146875,-0.02332114428281784,0.028693759813904762,0.01780051924288273,-0.11276420205831528,-0.07045591622591019,0.060902662575244904,0.037931304425001144,-0.006706960033625364,0.04622400179505348,0.0021604388020932674,-0.054445017129182816,-0.03234127163887024,-0.0016032131388783455,0.057457320392131805,0.018845846876502037,-0.00883383210748434,0.014504107646644115,0.07997730374336243,-0.1551581770181656,0.03983697295188904],[-0.09363918006420135,0.08580539375543594,0.01963096670806408,0.046707991510629654,-0.04303772374987602,0.0407787561416626,0.0850614681839943,-0.08843882381916046,-0.0878717377781868,0.03202935680747032,0.049939557909965515,-0.07754532247781754,0.05862746760249138,-0.059576887637376785,0.06073704734444618,0.005322492681443691,0.09812247008085251,0.050639279186725616,-0.09950724989175797,0.05081203952431679,0.06456565856933594,-0.047320857644081116,-0.12258594483137131,-0.045962512493133545,0.0876617431640625,-0.031247014179825783,-0.09472007304430008,0.031820304691791534,-0.05815039947628975,0.013944646343588829,-0.038276296108961105,0.06824272125959396],[0.019885724410414696,-0.1202712282538414,-0.04528355225920677,0.046146076172590256,-0.06965020298957825,0.027762500569224358,-0.08346955478191376,-0.012217484414577484,-0.08399806916713715,0.07727182656526566,0.0710083395242691,0.008395870216190815,0.06530845165252686,0.01576067879796028,0.02314961515367031,0.006222356576472521,-0.08599231392145157,0.074297696352005,-0.10792789608240128,0.07972219586372375,0.011887634173035622,0.09091982990503311,0.06337212026119232,-0.09266271442174911,0.08975484222173691,-0.05524558573961258,-0.08573544770479202,-0.03233254700899124,-0.0514465793967247,-0.032561998814344406,0.07632002234458923,-0.0210497435182333],[-0.1247912347316742,-0.08670250326395035,0.03952016308903694,-0.039149679243564606,-0.007410814054310322,-0.09620865434408188,0.015920689329504967,0.10292182862758636,0.03648187220096588,0.07834407687187195,0.0006987990927882493,0.0003420074062887579,-0.09413781762123108,0.1087065115571022,-0.01648670621216297,0.004642612300813198,-0.10016860067844391,0.13589127361774445,-0.021815791726112366,0.0302183385938406,0.03212152421474457,-0.0256805382668972,0.007162978406995535,-0.03148765489459038,-0.0819937214255333,0.04071273282170296,-0.09373953193426132,0.07909534126520157,0.04723131284117699,-0.0231457706540823,-0.04040011018514633,0.03603823482990265],[0.0033986917696893215,-0.02786807343363762,-0.09313386678695679,-0.06536521762609482,0.0884447991847992,-0.10045917332172394,-0.01069665141403675,-0.0961068645119667,0.05914459377527237,-0.07184404879808426,0.022114286199212074,0.026081444695591927,0.03157646209001541,0.1070449948310852,0.05547541379928589,0.07494170218706131,-0.10768982768058777,0.021228240802884102,-0.02862669713795185,-0.0819697231054306,0.05145219340920448,0.07419782876968384,0.06014937162399292,-0.03112214058637619,0.05049126595258713,0.07048160582780838,0.023974228650331497,-0.08905758708715439,-0.06813874840736389,0.05527239292860031,0.0018895398825407028,0.022555379197001457],[-0.05921057611703873,-0.033396318554878235,-0.09840653091669083,0.030969340354204178,0.006675949320197105,0.013979224488139153,-0.0064375209622085094,0.06237635016441345,0.009590504691004753,0.020369987934827805,-0.0339193120598793,-0.06071443110704422,-0.10042812675237656,0.08857577294111252,-0.0068045808002352715,-0.1074625700712204,0.06834696978330612,0.02140085957944393,-0.05769480764865875,0.08244474232196808,0.033930420875549316,0.08356495201587677,0.027986351400613785,-0.10237717628479004,0.039838749915361404,-0.09701113402843475,-0.10439465194940567,0.029595667496323586,-0.07318975031375885,-0.04706742614507675,0.0570310540497303,-0.08370425552129745],[0.06543490290641785,0.09250549226999283,-0.016571464017033577,-0.09659146517515182,-0.041853051632642746,-0.016833696514368057,-0.03396708145737648,0.05554359033703804,-0.05172526091337204,-0.005222276784479618,0.09175349771976471,-0.03266775608062744,-0.10705617815256119,0.0667593777179718,0.0501219742000103,0.07131735235452652,0.07915525138378143,-0.03729373216629028,0.06709155440330505,-0.03013150580227375,-0.03387792035937309,-0.08290538191795349,0.06617763638496399,-0.041435640305280685,-0.04227053001523018,-0.050101298838853836,0.007221078500151634,-0.02856900729238987,0.0004450920387171209,0.058167677372694016,-0.10665138065814972,-0.006161391269415617],[-0.053532470017671585,-0.028541533276438713,-0.08906771242618561,0.05265924334526062,0.0612151138484478,0.0858677551150322,0.048837270587682724,0.11046162247657776,-0.07266978174448013,0.030603714287281036,0.09219172596931458,0.10662644356489182,-0.1219397485256195,-0.0445951372385025,0.060149021446704865,-0.09558190405368805,-0.04175860434770584,0.09555657207965851,-0.0003216424083802849,-0.05132798105478287,-0.003379343543201685,0.11280690133571625,-0.007204894907772541,-0.05813397467136383,-0.05842135101556778,-0.08403940498828888,-0.042048078030347824,-0.053937286138534546,0.08000105619430542,-0.053178466856479645,-0.07362158596515656,-0.08523485064506531],[-0.050529398024082184,-0.039358314126729965,-0.10741479694843292,-0.040048617869615555,-0.02889825776219368,-0.04316939786076546,0.07672189921140671,-0.07058345526456833,0.01727668009698391,-0.008502346463501453,0.04941084235906601,0.08651028573513031,0.047163158655166626,0.05357630178332329,-0.0024181518238037825,-0.05326518788933754,0.06114671006798744,-0.09581977128982544,-0.0027485571336001158,0.031088709831237793,-0.12630626559257507,0.07058310508728027,0.07513152807950974,-0.015629511326551437,0.0037648614961653948,-0.13045434653759003,0.049471963196992874,-0.06075635552406311,-0.014328423887491226,0.00033941917354241014,0.09391694515943527,-0.041947539895772934],[0.07635235041379929,0.060181669890880585,0.03958356752991676,0.064583919942379,-0.08914677798748016,-0.017386727035045624,0.04520261660218239,0.014261273667216301,-0.08517547696828842,0.0589984767138958,-0.1057053655385971,0.038616154342889786,0.011988125741481781,0.06240154430270195,-0.016987396404147148,-0.04106675833463669,0.060718439519405365,0.03633303940296173,-0.011948738247156143,0.016750413924455643,0.04068031907081604,0.032707273960113525,-0.04573584720492363,-0.07350458204746246,0.044220875948667526,-0.02378302812576294,0.03290780261158943,0.06066136062145233,0.06974810361862183,0.054477181285619736,0.01856645941734314,-0.08715445548295975],[-0.012293782085180283,0.04566618800163269,-0.07929560542106628,-0.04332162067294121,0.06024762988090515,0.04959915578365326,-0.10953302681446075,0.0013995337067171931,-0.005393163301050663,0.006426832173019648,0.0012000950518995523,-0.11139477789402008,-0.09249068796634674,0.029054971411824226,-0.029347293078899384,-0.0860711857676506,-0.024857113137841225,-0.028059594333171844,0.06756097823381424,0.03559762239456177,0.08409208804368973,0.0320289321243763,0.05990392714738846,0.0341908298432827,-0.016848266124725342,0.004577201791107655,0.01321665570139885,-0.013757734559476376,0.07119057327508926,0.09696640819311142,0.028482582420110703,0.06477072089910507],[0.0009893851820379496,-0.06777903437614441,-0.01031546201556921,0.05261046439409256,0.05369104817509651,-0.055549800395965576,-0.009986396878957748,-0.028008757159113884,-0.12798690795898438,0.007806465495377779,0.04675355553627014,-0.11410529166460037,0.06407182663679123,-0.021782923489809036,0.056993354111909866,-0.026530083268880844,-0.08827648311853409,0.002110768109560013,0.006322141736745834,-0.12830708920955658,0.025468681007623672,0.04911714792251587,-0.010488850995898247,-0.037689320743083954,0.03447660431265831,-0.03905288502573967,-0.024677466601133347,-0.04920516163110733,-0.12309078872203827,0.08466600626707077,0.01786576770246029,0.011706455610692501]],[[-0.035237185657024384,-0.0027069824282079935,-0.029345734044909477,-0.008711930364370346,-0.10341993719339371,0.0031131801661103964,0.09332791715860367,-0.044208746403455734,0.09102875739336014,0.09861614555120468,-0.003261068370193243,-0.02709653414785862,-0.1114630326628685,-0.01878858543932438,0.03696582466363907,0.028517376631498337,0.00663398252800107,0.09662414342164993,-0.007963120937347412,-0.11149893701076508,-0.07454098761081696,-0.04820987582206726,-0.044816501438617706,0.042903028428554535,0.03461505100131035,0.06282615661621094,-0.024188458919525146,0.06431905180215836,0.08416114002466202,-0.034803424030542374,0.09822762757539749,0.015716275200247765],[-0.04792937636375427,-0.047115907073020935,0.020254701375961304,-0.07969097048044205,0.002766053657978773,0.05362316593527794,0.045153383165597916,0.030318541452288628,-0.03230468928813934,-0.053274426609277725,-0.028602300211787224,0.019150830805301666,0.09072550386190414,0.12273035198450089,-0.0284333024173975,-0.08642645180225372,-0.04232999309897423,-0.07170189917087555,0.010022319853305817,0.06157130375504494,-0.018419628962874413,0.012995634227991104,-0.030027970671653748,-0.032399047166109085,-0.04312775284051895,-0.04168706014752388,-0.08663942664861679,-0.005261903628706932,-0.034172285348176956,-0.10128875076770782,0.09781493246555328,-0.047645196318626404],[-0.033392954617738724,-0.07831662893295288,-0.047539129853248596,-0.11435471475124359,-0.07528220117092133,0.07129570841789246,0.08143393695354462,0.09993459284305573,-0.028475407510995865,0.10194668173789978,-0.02587880939245224,0.059271860867738724,0.053725793957710266,-0.011046242900192738,-0.06075813248753548,-0.06176730990409851,0.03250770643353462,0.0897957906126976,-0.029190655797719955,-0.07610829919576645,0.06718989461660385,0.11008870601654053,-0.0628858357667923,0.07421327382326126,-0.08968765288591385,-0.03338855504989624,0.03195343166589737,-0.0976024866104126,-0.03837917000055313,-0.09652523696422577,-0.08059871941804886,-0.07939913123846054],[-0.014978603459894657,-0.08209070563316345,-0.10656608641147614,0.010489938780665398,0.026782164350152016,0.07412341237068176,-0.0041622561402618885,0.036653902381658554,-0.06330199539661407,-0.028287798166275024,-0.10544807463884354,0.06027321144938469,-0.03616970777511597,0.016842421144247055,0.11795918643474579,0.0026687844656407833,0.028511198237538338,0.06788124889135361,0.0008916946244426072,-0.11660220474004745,0.07533524930477142,0.07818449288606644,0.06754761934280396,0.017667721956968307,0.0598403699696064,0.022908654063940048,-0.01133703626692295,0.003121937857940793,0.0013966424157842994,-0.003589275758713484,-0.004201814532279968,-0.0876360684633255],[-0.11027760803699493,-0.12320522218942642,-0.011151574552059174,-0.0417449027299881,0.08572609722614288,-0.06441637873649597,0.02111547812819481,0.026569370180368423,0.06549467146396637,-0.0882682278752327,0.05844991281628609,-0.07272117584943771,0.023766323924064636,0.06910122185945511,-0.09115136414766312,-0.048653848469257355,-0.0631542056798935,0.060543403029441833,0.0748133510351181,-0.030095873400568962,0.02599514089524746,0.06005740910768509,-0.017835086211562157,-0.008295007050037384,-0.042870111763477325,-0.027612943202257156,-0.09509705752134323,0.05483686923980713,-0.08164913207292557,-0.09689658880233765,0.02364766225218773,-0.08947193622589111],[0.08353384584188461,0.013641475699841976,0.0809798315167427,0.021272486075758934,-0.07818176597356796,-0.03570258617401123,-0.04139171540737152,0.07924771308898926,0.05360233038663864,-0.024235473945736885,0.07029678672552109,0.0024770840536803007,-0.03698612377047539,-0.08515078574419022,-0.059052035212516785,0.0606401301920414,-0.0940018892288208,0.001780112273991108,0.02537291683256626,0.03258415684103966,0.030017152428627014,0.07265695929527283,-0.0897877961397171,-0.09387549012899399,0.019444085657596588,0.10766278207302094,0.01592857576906681,-0.009612839668989182,-0.10451235622167587,-0.10057349503040314,0.021567270159721375,-0.013046360574662685],[-0.07698212563991547,-0.12467778474092484,0.003377145156264305,-0.05361456051468849,-0.007900654338300228,0.08688334375619888,-0.016884205862879753,-0.019937627017498016,0.09073420614004135,-0.023003961890935898,0.005003465339541435,-0.006533065810799599,0.04437921196222305,-0.010133275762200356,0.03470202907919884,-0.03859918937087059,0.0326678641140461,-0.016306333243846893,0.06841693073511124,-0.04134330525994301,0.06677962839603424,-0.03276543691754341,-0.06566750258207321,0.0007030980195850134,0.0858260840177536,-0.04223577678203583,-0.1087171658873558,-0.11037858575582504,-0.07234229892492294,-0.1138894259929657,0.02328678034245968,0.07710693776607513],[0.013695846311748028,-0.008722894825041294,-0.053474705666303635,-0.05589964613318443,-0.06099317595362663,-0.05478717014193535,-0.11545557528734207,-0.01375335268676281,-0.06947039812803268,0.06819219887256622,-0.005081402137875557,-0.04949022829532623,0.05086434260010719,-0.026625722646713257,-0.04363559931516647,0.034154899418354034,-0.12116769701242447,0.04660055413842201,-0.01618216186761856,-0.008098087273538113,-0.06978064030408859,-0.09502539038658142,0.05585801601409912,-0.010271169245243073,-0.028862738981842995,0.07137345522642136,0.03655072674155235,0.030231855809688568,0.022814912721514702,-0.04415857791900635,-0.0874546468257904,-0.07500557601451874],[-0.08068733662366867,0.02830042503774166,-0.053299035876989365,0.027857506647706032,0.08822876214981079,-0.11331559717655182,-0.05591881647706032,-0.055452365428209305,-0.07297679781913757,0.029092537239193916,-0.026780670508742332,-0.04382442310452461,0.03701596334576607,0.055145543068647385,0.06228433549404144,0.07132529467344284,-0.061031974852085114,-0.03295048698782921,0.05270260199904442,0.02062959596514702,0.06852200627326965,-0.04204317927360535,0.07199815660715103,-0.06538441777229309,-0.05823829025030136,0.062388140708208084,-0.0412788949906826,-0.03618622198700905,0.0016148502472788095,0.00802861899137497,-0.000953983748331666,-0.0617428757250309],[-0.06161089986562729,-0.06160171329975128,0.011696146801114082,0.08829161524772644,0.010633041150867939,0.04347999021410942,-0.002450820989906788,0.046951815485954285,0.0329301543533802,0.0794663205742836,0.09070443361997604,0.10036080330610275,0.11276133358478546,-0.06504477560520172,0.07770591229200363,0.014837266877293587,-0.005106425378471613,0.005404897965490818,0.09641102701425552,-0.09034491330385208,0.09645500779151917,0.04713045805692673,-0.11740060895681381,-0.05346677452325821,-0.08588108420372009,0.017033757641911507,-0.000737807946279645,0.0877310037612915,-0.08300498872995377,-0.03455542400479317,0.029855022206902504,-0.09854819625616074],[-0.09666698426008224,0.02380179800093174,-0.01879901811480522,-0.07949052006006241,-0.05845068395137787,-0.05513107404112816,0.06601304560899734,0.09021776169538498,0.07715722918510437,-0.017211172729730606,0.10636451095342636,-0.08475823700428009,-0.08564265817403793,-0.04646913334727287,0.07610345631837845,0.053759120404720306,-0.07224345207214355,-0.025612350553274155,-0.030292708426713943,-0.0663963332772255,-0.06207410618662834,0.10125123709440231,-0.003956415690481663,-0.01221232209354639,-0.11272044479846954,0.06081178039312363,-0.09556744992733002,0.01588395982980728,0.039119161665439606,-0.010455068200826645,-0.0038648266345262527,-0.03625937178730965],[0.041318364441394806,0.005711698904633522,-0.09297502785921097,0.07466044276952744,0.06053179129958153,0.005679302848875523,0.02393125742673874,-0.06375079602003098,-0.03337397798895836,0.0228425282984972,-0.10003073513507843,-0.07338780909776688,-0.006976482458412647,0.03659769520163536,-0.026729149743914604,0.0810803771018982,-0.04958920553326607,0.01814434677362442,0.07618436217308044,0.023611875250935555,0.011753554455935955,-0.07198359072208405,0.004175873938947916,0.027044076472520828,-0.021172037348151207,0.022313464432954788,0.026504267007112503,0.0522482730448246,0.06471496820449829,-0.10810329765081406,-0.058798860758543015,-0.00549816619604826],[-0.019027099013328552,-0.11800359934568405,-0.010485383681952953,0.03152839466929436,-0.028407856822013855,-0.004759402479976416,-0.06855670362710953,0.06250378489494324,-0.052235960960388184,-0.05379074811935425,-0.019807038828730583,0.09760120511054993,0.027482880279421806,-0.06276798248291016,0.013787869364023209,-0.11007403582334518,0.07408487796783447,-0.07590040564537048,0.049008890986442566,0.08162041008472443,-0.07154044508934021,0.12207037210464478,-0.09252602607011795,-0.01061778049916029,-0.012583678588271141,-0.1227993443608284,0.06472481787204742,-0.02091629058122635,-0.05055967718362808,-0.037370312958955765,-0.03572873771190643,-0.08765797317028046],[-0.031565841287374496,0.07927946001291275,-0.12754923105239868,-0.09386059641838074,-0.09267588704824448,-0.07965193688869476,-0.07830032706260681,0.09899583458900452,-0.08550306409597397,0.10029440373182297,0.07064367085695267,-0.04978368431329727,-0.06347688287496567,0.0862431451678276,0.10338012874126434,0.050332773476839066,-0.09900826215744019,0.08315542340278625,-0.0922531932592392,0.055081285536289215,-0.02375265210866928,-0.048615772277116776,-0.06891527026891708,-0.0328790582716465,0.08503109961748123,0.03916674852371216,0.025612127035856247,-0.027434762567281723,-0.07150693237781525,0.060530081391334534,0.05670339614152908,-0.10251104831695557],[0.013814262114465237,-0.05821685492992401,0.08600708097219467,0.003762210253626108,-0.027110062539577484,-0.0034644235856831074,-0.020538046956062317,0.12973597645759583,-0.07711323350667953,0.004225451499223709,-0.10823627561330795,-0.04119976609945297,0.09535592794418335,0.09881948679685593,0.03683701902627945,-0.09267093986272812,-0.04719994589686394,-0.014921572059392929,0.019250333309173584,-0.060446180403232574,-0.028540411964058876,0.017075659707188606,0.008384776301681995,0.06410184502601624,0.015836555510759354,0.07988385111093521,-0.04437296465039253,0.0075903395190835,-0.06111285462975502,-0.026951057836413383,-0.05131002515554428,-0.0974525511264801],[-0.036592524498701096,-0.008141925558447838,0.04459356144070625,0.08547648787498474,0.07690157741308212,-0.028131628409028053,-0.03894917294383049,-0.07816658914089203,-0.06077352166175842,0.11102688312530518,-0.03922395780682564,0.0008713183924555779,-0.10632342845201492,0.08442116528749466,-0.058639876544475555,-0.08279018849134445,-0.040651507675647736,0.02119988203048706,-0.036016568541526794,-0.07367608696222305,0.012791664339601994,0.06465859711170197,-0.05481408163905144,0.02068810909986496,0.006304290611296892,-0.08344244956970215,0.01738765463232994,0.07002298533916473,0.024019889533519745,-0.027475420385599136,-0.07507331669330597,-0.059039775282144547]],[[0.07142198085784912,0.04547088220715523,-0.020855557173490524,0.08280157297849655,-0.0039649540558457375,0.015377510339021683,0.07817398011684418,0.03192168474197388,0.019843794405460358,0.03256651759147644,0.11969120800495148,0.03029968962073326,0.012667739763855934,0.009594359435141087,-0.016749922186136246,-0.08154688030481339,-0.01837431825697422,-0.0271834135055542,0.008988797664642334,-0.01528696995228529,-0.058760110288858414,0.00464240275323391,0.05388692766427994,0.0833805501461029,-0.01606319472193718,0.07199863344430923,-0.00432573352009058,0.07476494461297989,0.08528625965118408,-0.03808289393782616,-0.000380808487534523,0.09004795551300049],[-0.06157449632883072,0.0807027518749237,-0.07535780966281891,-0.06681924313306808,0.017133228480815887,-0.01857704482972622,0.02713039517402649,0.067561574280262,-0.03725580871105194,0.04880031570792198,-0.057309944182634354,0.06908822059631348,-0.0027341805398464203,0.07994789630174637,0.08673853427171707,0.055564992129802704,-0.011104649864137173,-0.08080774545669556,-0.006270825397223234,-0.09300451725721359,0.001594271743670106,0.1179693415760994,-0.05329851061105728,0.0531148798763752,0.008695145137608051,0.028867946937680244,0.029858611524105072,0.0400569848716259,-0.006080022547394037,-0.0872078463435173,0.003039625473320484,-0.010197795927524567],[0.0171869695186615,-0.0896269828081131,-0.010250632651150227,0.06096821278333664,-0.0007465951493941247,-0.07973187416791916,-0.03829250484704971,0.07839962840080261,-0.013256629928946495,0.016464808955788612,-0.05688343197107315,-0.11001083999872208,-0.11125174909830093,0.023623313754796982,0.020454108715057373,-0.03915439546108246,0.02032388187944889,0.10084500163793564,-0.06378509849309921,-0.005365848075598478,0.004449865315109491,-0.08163733780384064,0.024394504725933075,0.0392354391515255,-0.015260820277035236,0.08876031637191772,0.05526061728596687,-0.05021049827337265,-0.06145602837204933,0.054483503103256226,0.0596853606402874,0.01620909385383129],[0.026719851419329643,0.05157822370529175,0.07628381997346878,0.11181524395942688,-0.06978891044855118,-0.00969016645103693,-0.08060475438833237,-0.06471815705299377,-0.12587739527225494,0.07093683630228043,0.019215896725654602,-0.020162420347332954,0.055982694029808044,-0.04653744772076607,0.0870230495929718,-0.06518850475549698,-0.07805532217025757,-0.08299169689416885,0.06260135024785995,-0.015163551084697247,0.03380503132939339,-0.02032363787293434,0.028240960091352463,-0.03369026258587837,-0.04407452419400215,0.10768406838178635,0.00019581496599130332,-0.083917997777462,0.04677446931600571,-0.03910869359970093,-0.036813486367464066,0.09699027985334396],[-0.009325464256107807,-0.07306179404258728,0.07128604501485825,-0.006616899278014898,0.09890004992485046,-0.06869984418153763,-0.06861883401870728,-0.012773199938237667,-0.06237020343542099,0.010317868553102016,-0.060671012848615646,0.0489710308611393,-0.042516615241765976,-0.02454010397195816,0.029824869707226753,-0.019723709672689438,0.0731055960059166,-0.0446736104786396,-0.04525923728942871,-0.06189287081360817,0.11616802960634232,0.07778380811214447,-0.09842415899038315,-0.03847295418381691,-0.06264594942331314,-0.03975506126880646,-0.0416359044611454,0.05111441761255264,-0.08794145286083221,-0.03326215595006943,0.05683201923966408,0.01460359152406454],[-0.10048198699951172,0.0008200618322007358,0.01801673136651516,-0.07479419559240341,0.06124799698591232,-0.08387920260429382,-0.03886905312538147,0.07744111120700836,-0.12419424951076508,-0.04461391642689705,-0.07317394018173218,0.1029001921415329,0.0008052609045989811,-0.07523738592863083,0.06376591324806213,-0.0182747021317482,0.007893843576312065,0.07518782466650009,-0.06316592544317245,0.05381983891129494,-0.0213780477643013,-0.010193930007517338,0.0004863508802372962,-0.049004122614860535,0.011270513758063316,0.07608284056186676,-0.06925363093614578,-0.10025566071271896,-0.0732712522149086,-0.11373311281204224,-0.08619330823421478,-0.04465728625655174],[0.0792585238814354,0.02061009220778942,-0.08861948549747467,-0.03949875384569168,0.04779519885778427,0.0584888756275177,0.04645548760890961,-0.0165026243776083,-0.03932471200823784,0.03629438206553459,-0.0824943482875824,-0.07721767574548721,-0.0666806623339653,-0.03874959424138069,-0.07926328480243683,-0.08077429980039597,-0.06805697083473206,0.0817493349313736,-0.08602813631296158,-0.03942962363362312,-0.09564226120710373,-0.012309345416724682,-0.06224792078137398,-0.012891796417534351,-0.07612370699644089,-0.045565299689769745,-0.011576223187148571,-0.042831894010305405,-0.09316548705101013,-0.05965406075119972,-0.0561978816986084,-0.07275760918855667],[-0.030721018090844154,-0.059918493032455444,-0.109624944627285,-0.10302495211362839,-0.05186401307582855,-0.07992526143789291,-0.06533373892307281,0.044106949120759964,-0.07076726853847504,0.12429169565439224,0.0933113619685173,-0.05962132662534714,-0.10654916614294052,-0.07196181267499924,0.09946849197149277,-0.10816658288240433,-0.08645337074995041,-0.025573039427399635,0.0788532942533493,0.02712797373533249,-0.010946539230644703,0.04703252390027046,-0.008091380819678307,-0.10325071960687637,0.05769411474466324,-0.028010515496134758,-0.09498044103384018,0.004763050936162472,-0.005567461717873812,-0.08956985920667648,-0.016009312123060226,-0.0030599855817854404],[-0.07807958871126175,-0.08183787763118744,0.04558640345931053,-0.02935788780450821,0.04856187105178833,-0.09609480202198029,0.07009601593017578,0.07883405685424805,-0.08905617892742157,-0.01380490604788065,0.0661487951874733,0.09533531218767166,-0.13895085453987122,0.09772884845733643,0.10789128392934799,-0.02409409172832966,-0.015004848130047321,0.09229683130979538,0.008577770553529263,-0.0764424204826355,0.03114209696650505,0.02944961003959179,-0.13350161910057068,0.015074708499014378,0.01847035251557827,0.03476499021053314,-0.08682999014854431,-0.041216373443603516,-0.08202920109033585,-0.05562494322657585,-0.02224254235625267,-0.028910774737596512],[-0.0592094361782074,-0.09586962312459946,-0.08021832257509232,-0.046226866543293,-0.0043639326468110085,-0.060522422194480896,0.06447232514619827,0.1013730987906456,-0.05208323523402214,0.009738096967339516,-0.007941783405840397,-0.014476430602371693,-0.07640299201011658,0.08495190739631653,0.07160107791423798,0.023780837655067444,-0.08472930639982224,-0.05349547788500786,-0.07626406848430634,-0.077631875872612,-0.005999132990837097,0.08168356120586395,-0.07937581837177277,-0.08938693255186081,-0.09779985249042511,-0.04235832020640373,-0.010425988584756851,-0.05581211671233177,0.015504023060202599,-0.008200066164135933,-0.10769296437501907,-0.08475890755653381],[0.013164588250219822,0.034340254962444305,-0.016195420175790787,-0.008042723871767521,-0.013866112567484379,0.04146721586585045,-0.1120472401380539,0.0774608924984932,0.02302151918411255,0.07050484418869019,0.04860233515501022,-0.10121150314807892,-0.021959833800792694,-0.0887099876999855,-0.0386950708925724,0.05768696218729019,-0.09767023473978043,-0.033958930522203445,-0.08949301391839981,-0.08942767232656479,0.06580512225627899,0.015383717603981495,0.05320427566766739,0.02685810998082161,0.05535748973488808,-0.014073306694626808,-0.03834887221455574,0.06881927698850632,-0.09970567375421524,0.06703165173530579,-0.013718466274440289,-0.023689383640885353],[0.035135045647621155,0.05719257891178131,-0.06787623465061188,0.011980889365077019,0.05893881618976593,0.004013874102383852,-0.013983436860144138,-0.0338725708425045,-0.024599900469183922,0.023701708763837814,0.01112049538642168,0.045007117092609406,-0.08728976547718048,-0.08298826962709427,0.06020793691277504,-0.02643340267241001,-0.06384875625371933,0.030306000262498856,-0.03084236942231655,0.044421933591365814,-0.02805943787097931,0.05574122816324234,0.0437437929213047,-0.005503371357917786,0.03812982141971588,0.03719022870063782,-0.019235018640756607,0.01124820951372385,0.08130357414484024,-0.08593480288982391,-0.048333946615457535,-0.052481863647699356],[-0.04266469180583954,-0.002653613220900297,0.0018673754530027509,0.057669155299663544,0.02427368052303791,0.00558286951854825,-0.020189134404063225,0.020167436450719833,0.0301669929176569,-0.0898156389594078,0.009420014917850494,0.07308334112167358,-0.1012151688337326,0.03021773137152195,0.04220793396234512,-0.07376520335674286,-0.005957927089184523,-0.024994051083922386,0.0702618733048439,0.06535863131284714,-0.017840685322880745,0.021780207753181458,-0.11136621981859207,0.05037146061658859,0.04203416779637337,-0.07719478756189346,-0.022450055927038193,-0.07195581495761871,-0.027702143415808678,-0.08523692935705185,-0.07066598534584045,-0.018329646438360214],[-0.04441743344068527,-0.05918112024664879,-0.0029125649016350508,0.07024027407169342,-0.10159695148468018,-0.101887546479702,0.07595215737819672,-0.061575811356306076,0.028226520866155624,-0.046908263117074966,-0.05026104673743248,0.02823709324002266,-0.013931121677160263,-0.024397453293204308,-0.0410369448363781,-0.0072514647617936134,0.030551686882972717,0.026331031695008278,-0.0829194039106369,-0.07402566075325012,-0.07411494106054306,0.021450193598866463,0.01111685298383236,-0.0955490991473198,0.01911301538348198,-0.12299239635467529,-0.10118718445301056,-0.015112183056771755,0.07429785281419754,-0.0637606531381607,-0.0014879973605275154,-0.01717044599354267],[-0.07894369214773178,-0.02699623443186283,-0.04980655387043953,-0.024573829025030136,-0.041091982275247574,-0.07237522304058075,0.06614896655082703,-0.034112922847270966,0.02024335041642189,-0.07235392183065414,0.036732498556375504,-0.053619321435689926,0.0131998211145401,-0.05111362412571907,-0.061492547392845154,-0.03605544567108154,-0.02454577386379242,0.06345691531896591,-3.244237814215012e-05,-0.02275713160634041,-0.08285322785377502,-0.04534546658396721,-0.007816578261554241,-0.0017352106515318155,0.00755861634388566,0.047397881746292114,-0.054661378264427185,0.00035249206121079624,-0.033079806715250015,0.0700187012553215,-0.10464625060558319,0.08663973957300186],[-0.05524739623069763,-0.036693185567855835,-0.005496280733495951,-0.05119705572724342,-0.09077282249927521,-0.10667885094881058,0.07383378595113754,0.04872436448931694,-0.04755731672048569,-0.008979600854218006,-0.052926644682884216,0.06756702810525894,0.09424766153097153,0.008728142827749252,-0.08291496336460114,-0.05576564744114876,-0.050018277019262314,-0.012799544259905815,-0.051552075892686844,0.04201659932732582,-0.0181602630764246,-0.008426284417510033,-0.0910765677690506,-0.021654201671481133,-0.0369391143321991,0.0075335754081606865,-0.02864992432296276,0.08895526081323624,-0.0621623657643795,0.08612341433763504,0.05149208754301071,0.07610256969928741]],[[0.01656796969473362,0.03165959566831589,-0.06180110573768616,0.048689357936382294,-0.09018024802207947,-0.04983435571193695,-0.03216175362467766,0.10041312873363495,0.03762935847043991,-0.0349343866109848,-0.054500579833984375,-0.07532636821269989,0.043411560356616974,-0.0023833690211176872,-0.08475475758314133,-0.0046783615835011005,0.02682516723871231,-0.04545551910996437,0.05390756577253342,-0.06652264297008514,0.09816285222768784,-0.05599440634250641,0.08518780022859573,0.02859092690050602,0.02266174927353859,-0.009593806229531765,-0.005150762386620045,-0.02354583516716957,0.011712818406522274,0.06028484180569649,-0.08703602850437164,-0.020897720009088516],[-0.09607772529125214,-0.003778257640078664,-0.08928310871124268,0.015918420627713203,-0.02957111969590187,-0.1042906641960144,0.06192943453788757,0.10266878455877304,-0.06310361623764038,0.0737956166267395,-0.06837764382362366,-0.05071832612156868,-0.04275476187467575,0.07353218644857407,-0.0021871982607990503,0.033224765211343765,-0.08157318830490112,-0.0616048127412796,-0.05396207794547081,0.056706495583057404,0.00046382908476516604,0.006098289508372545,0.04120943695306778,-0.0673409029841423,0.02699388936161995,0.07613611966371536,-0.09124117344617844,0.02383168414235115,-0.08461157232522964,0.036542098969221115,0.01403292641043663,0.060187965631484985],[-0.11203377693891525,0.05647210031747818,-0.043119341135025024,-0.09511882811784744,0.040486495941877365,-0.005446312949061394,0.0033411073964089155,-0.03288285434246063,-0.06140820309519768,-0.053292129188776016,-0.03849269077181816,-0.0549880787730217,0.030263962224125862,0.03886253759264946,0.09968631714582443,-0.058500684797763824,0.07658066600561142,-0.012217734009027481,0.001179973711259663,-0.04525771364569664,0.06395288556814194,0.07900611311197281,-0.07221242040395737,0.04063263162970543,-0.04367125779390335,-0.07020018994808197,0.0013935919851064682,0.0028270946349948645,-0.013058296404778957,-0.0024841008707880974,0.0313233882188797,-0.09163891524076462],[0.03646386042237282,0.05832539498806,-0.020530426874756813,-0.07816138118505478,-0.1009516790509224,0.04559718817472458,-0.03220082446932793,0.08022215962409973,0.028833040967583656,0.0768793374300003,-0.08722113072872162,0.028442000970244408,-0.016663864254951477,0.012869320809841156,-0.04860733449459076,-0.04702272638678551,-0.020397646352648735,0.037647221237421036,0.029518021270632744,-0.0869232639670372,0.030283112078905106,0.06877896189689636,-0.10403618961572647,-0.08944839984178543,0.048485562205314636,0.013535594567656517,-0.0070940181612968445,-0.060217730700969696,0.07917400449514389,0.1083890050649643,-0.11980902403593063,-0.0498933270573616],[-0.05915091186761856,0.036131635308265686,0.017783891409635544,-0.03324369341135025,0.07129386067390442,0.003965672105550766,-0.07599381357431412,0.04005104675889015,0.03775201365351677,0.08403414487838745,-0.03819511458277702,-0.05178491026163101,-0.10840880870819092,0.05090751126408577,0.0359036885201931,-0.0694565549492836,0.04814272001385689,0.10306336730718613,0.08167850226163864,0.01747310161590576,0.10139378160238266,-0.024021698161959648,-0.07620859146118164,0.01933864876627922,0.017118655145168304,-0.10188941657543182,-0.08664305508136749,-0.012929114513099194,-0.033423569053411484,-0.079661525785923,-0.04972175136208534,-0.01927090808749199],[0.03571006655693054,-0.017490476369857788,0.05131180211901665,-0.10442843288183212,-0.03785788640379906,0.035995252430438995,-0.07050521671772003,0.03641103208065033,-0.06672772765159607,0.06836792081594467,-0.0806589350104332,0.055112916976213455,-0.06135079264640808,-0.048754096031188965,0.1008065938949585,-0.07417850196361542,0.06326568871736526,0.07248133420944214,-0.015217923559248447,0.008697940036654472,0.10545715689659119,0.01738145761191845,0.02682667225599289,-0.015088815242052078,0.01962105557322502,0.07322762906551361,0.06630831956863403,-0.07054387778043747,0.09278949350118637,0.053266678005456924,-0.0305890254676342,0.05739332363009453],[0.015676263719797134,-0.06244364008307457,-0.04272434860467911,0.06751326471567154,-0.05314049869775772,0.08544546365737915,-0.05044999346137047,0.07445582747459412,0.04166174679994583,0.05150157958269119,-0.014036964625120163,0.11017560213804245,-0.06715793162584305,-0.019054261967539787,-0.005604700185358524,0.0026539727114140987,-0.025141190737485886,0.05787469074130058,0.03470439091324806,-0.016014782711863518,-0.0860128328204155,0.09363441914319992,-0.08119948953390121,-0.05310364440083504,0.05584863945841789,-0.029452426359057426,-0.05992820858955383,-0.06843633949756622,-0.04272592440247536,-0.08040231466293335,0.06451193988323212,-0.033343929797410965],[-0.03795689344406128,-0.06810245662927628,-0.0773419514298439,-0.11162013560533524,0.06422878056764603,-0.09646158665418625,0.024936161935329437,0.050525881350040436,-0.008958622813224792,0.07045458257198334,0.04417862743139267,0.01642019674181938,0.01774500496685505,0.03234551474452019,0.08474995195865631,-0.09945456683635712,0.037560608237981796,0.022983994334936142,-0.05437471717596054,-0.12494746595621109,0.012462051585316658,0.03843919560313225,-0.0025208366569131613,0.0009546913206577301,-0.10093139111995697,-0.07028204947710037,-0.061597783118486404,-0.055832091718912125,0.05050448700785637,-0.05373985320329666,-0.0321316197514534,-0.06491699069738388],[-0.039739180356264114,-0.08600480854511261,-0.0132868941873312,-0.05419621616601944,0.045949116349220276,-0.12782324850559235,-0.047118086367845535,-0.09721802175045013,-0.007468896917998791,-0.008050773292779922,0.053493376821279526,-0.02795259840786457,0.08625909686088562,-0.06063687056303024,0.056651752442121506,0.08498453348875046,-0.1093989908695221,0.059907540678977966,0.04807446151971817,-0.024683471769094467,-0.04399510845541954,-0.03463059663772583,-0.044448114931583405,-0.03825116902589798,-0.029862504452466965,-0.045180000364780426,-0.109192855656147,-0.023433703929185867,0.0191902294754982,0.10881373286247253,0.031289417296648026,-0.03959942236542702],[-0.10445205867290497,0.02718191221356392,-0.015360793098807335,-0.031529493629932404,0.049558013677597046,-0.05032854527235031,-0.04021225497126579,-0.05119582265615463,0.02835993282496929,-0.037864577025175095,-0.04405677691102028,-0.03637731820344925,-0.0541306808590889,0.09158194065093994,-0.08492263406515121,0.0880216434597969,0.018490420654416084,-0.020445886999368668,0.030170664191246033,-0.00918921735137701,0.015212235040962696,-0.051502689719200134,0.0897585079073906,0.05747171863913536,0.017049163579940796,0.01839008554816246,-0.0194325502961874,0.05158945173025131,-0.10944993048906326,0.0730617344379425,-0.04215279966592789,-0.005462214816361666],[0.030065886676311493,-0.09307414293289185,-0.036115583032369614,-0.05199052020907402,-0.03600969538092613,-0.08187346160411835,0.012370930053293705,0.04780583828687668,0.06851475685834885,0.06917993724346161,-0.02424856275320053,0.038161300122737885,-0.05064773187041283,0.04533028602600098,0.026210831478238106,-0.1014295294880867,0.04343438148498535,0.07510402798652649,-0.00553760165348649,0.019001822918653488,0.008042608387768269,-0.047204434871673584,-0.058157410472631454,-0.006879869848489761,-0.033597543835639954,-0.006306604947894812,-0.018708068877458572,0.023326726630330086,-0.073494553565979,-0.028450826182961464,-0.04675745964050293,-0.0417582131922245],[0.01230956893414259,-0.020390484482049942,0.07945676147937775,-0.03405170887708664,-0.07114241272211075,-0.06687962263822556,0.053402483463287354,0.07458716630935669,0.042845964431762695,-0.07150623947381973,-0.064329132437706,-0.07939139008522034,-0.07972981780767441,0.11172687262296677,0.07106883078813553,-0.09436075389385223,0.08101955056190491,0.03534388542175293,0.06304308772087097,0.06505198031663895,0.05640432983636856,0.05084441602230072,-0.0922810435295105,-0.06946335732936859,-0.02606993168592453,-0.05980013683438301,-0.06137736886739731,0.0023277245927602053,0.014030027203261852,-0.08488544821739197,-0.029663441702723503,-0.121192067861557],[-0.06721057742834091,-0.08671300858259201,0.02959153801202774,-0.008549743331968784,-0.09239273518323898,0.03680874779820442,0.08098241686820984,0.02355235069990158,-0.033826857805252075,0.09110850095748901,0.06140656769275665,0.07357796281576157,0.08340883255004883,0.035780563950538635,0.09002197533845901,-0.012346879579126835,-0.003299146192148328,0.009888464584946632,-0.05712743476033211,0.13057556748390198,-0.0895371213555336,0.08671054244041443,-0.03495460003614426,0.054485030472278595,0.0003069023659918457,-0.060800954699516296,0.01105306763201952,0.013291697017848492,-0.11521580815315247,0.08870754390954971,-0.008089379407465458,0.025036264210939407],[-0.023854520171880722,-0.06419093906879425,0.04488711059093475,-0.04806627705693245,0.06665925681591034,-0.046863947063684464,-0.017646359279751778,-0.0030631860718131065,-0.0855381190776825,-0.001935990178026259,-0.025989623740315437,-0.04084597900509834,0.10275932401418686,0.006809713318943977,-0.02528567984700203,-0.01145691704005003,-0.031219184398651123,-0.030718017369508743,-0.09754950553178787,0.016009462997317314,-0.04024612531065941,-0.03130723163485527,-0.09756163507699966,-0.05115121975541115,0.06195909157395363,-0.006192152388393879,-0.1438574641942978,0.056222110986709595,0.031657133251428604,-0.018900353461503983,0.0664677768945694,-0.04511362686753273],[-0.04548310860991478,-0.08116895705461502,-0.038685254752635956,0.09631595760583878,0.04183593764901161,0.032948222011327744,-0.00892318319529295,0.012649008072912693,-0.1294657289981842,0.02253834903240204,-0.05825653299689293,-0.048822157084941864,0.025701960548758507,0.01163284108042717,0.01672089844942093,-0.09498149901628494,0.05235138162970543,0.06799140572547913,0.03816310316324234,0.039481788873672485,-0.10455296188592911,-0.04759536311030388,-0.008287124335765839,-0.07823722064495087,-0.02826155163347721,-0.05399860441684723,-0.041720714420080185,-0.0874280110001564,-0.0026486848946660757,-0.07033929973840714,-0.08338230848312378,-0.056254416704177856],[-0.06366214901208878,-0.10048786550760269,0.03468787670135498,-0.07354433834552765,0.03552653267979622,-0.07670214027166367,-0.10186715424060822,0.046916842460632324,-0.008981996215879917,-0.045825615525245667,-0.03217722848057747,0.09095107764005661,-0.10039740800857544,-0.08768758922815323,0.05160348489880562,-0.0331244170665741,0.03343672677874565,0.018110843375325203,0.08240356296300888,0.041837356984615326,-0.07454020529985428,-0.02152952365577221,-0.08562464267015457,0.029796220362186432,0.0402199886739254,0.021139318123459816,0.04706444963812828,0.010807156562805176,-0.01020579133182764,0.009399649687111378,-0.012703928165137768,-0.05476941540837288]],[[-0.07475665211677551,-0.08579299598932266,-0.10761703550815582,-0.07789424061775208,-0.07494886219501495,-0.008892171084880829,-0.021461190655827522,0.03555093705654144,-0.05971266329288483,-0.09362798929214478,-0.06511446088552475,-0.04055119305849075,-0.09094366431236267,-0.014423279091715813,0.002335561905056238,0.06968745589256287,-0.014148314483463764,-0.010026580654084682,-0.04845177382230759,0.01668577641248703,0.03133449703454971,-0.04344858601689339,-0.11234704405069351,-0.05074483901262283,0.005158957559615374,-0.052102867513895035,-0.022508401423692703,-0.10107948631048203,-0.07191924750804901,0.01580587774515152,-0.028018269687891006,0.04770059138536453],[-0.09632080793380737,-0.04944642633199692,-0.03208724781870842,0.04192850738763809,0.05990059673786163,-0.00385872321203351,-0.025546876713633537,0.12120535224676132,-0.0038088744040578604,0.04435112327337265,0.05723672732710838,0.06638938933610916,0.09775123000144958,0.0591144859790802,0.07728901505470276,-0.036067429929971695,-0.041171539574861526,0.0865851640701294,0.007215519901365042,-0.04222888499498367,-0.07369551062583923,-0.0483754500746727,-0.03630507364869118,-0.012094247154891491,0.04905398562550545,-0.07292375713586807,-0.11445602774620056,-0.08147771656513214,0.005691301077604294,0.025342708453536034,0.05216153711080551,0.028271300718188286],[0.07342661917209625,-0.04142206534743309,-0.04516623169183731,0.036086566746234894,0.06528078764677048,-0.02680373378098011,-0.07941647619009018,-0.027475114911794662,0.006814433727413416,0.11923695355653763,-0.03611711040139198,-0.09221256524324417,-0.08918353915214539,-0.09169802814722061,-0.02928626909852028,-0.010135313495993614,0.002158096292987466,0.04125119373202324,-0.0790516808629036,0.010152837261557579,-0.03414192423224449,0.03779805824160576,-0.06651534885168076,0.05195705592632294,-0.01949126645922661,0.09278322011232376,-0.017133167013525963,-0.05592384934425354,-0.10009083151817322,0.05374792963266373,-0.09719947725534439,-0.1065051481127739],[0.06886554509401321,0.017578937113285065,-0.020197995007038116,-0.020543528720736504,-0.024686357006430626,0.06313002109527588,0.029971877112984657,0.0724753588438034,-0.011285427957773209,0.0692373737692833,-0.0920533835887909,-0.06865208595991135,-0.0025927985552698374,-0.014721977524459362,0.08467746526002884,0.02663549594581127,-0.0337429903447628,-0.006315882317721844,0.06601829826831818,0.02017388492822647,0.1154361441731453,-0.0329669788479805,-0.005640840623527765,-0.06882070004940033,-0.11946450918912888,-0.08887413889169693,0.08251377940177917,-0.060149963945150375,-0.11947761476039886,-0.04112587124109268,-0.044520486146211624,0.02806135267019272],[-0.03698720037937164,0.02394525520503521,-0.1084822565317154,0.0865379273891449,0.08612305670976639,-0.06137048453092575,0.027193909510970116,0.08626851439476013,0.02286290004849434,0.028192583471536636,0.08303258568048477,-0.042571667581796646,-0.061487503349781036,0.08673630654811859,-0.023678652942180634,0.02221815101802349,0.008407924324274063,0.050780899822711945,0.03567631542682648,-0.06009724736213684,-0.017134493216872215,-0.02443396858870983,0.035828299820423126,0.05416359007358551,-0.11509302258491516,-0.027485016733407974,-0.05764622986316681,0.039424628019332886,-0.07202615588903427,-0.03702184185385704,0.06202774494886398,0.013411838561296463],[0.04267602041363716,-0.07397346943616867,0.09453543275594711,0.005115574225783348,-0.0541621595621109,0.018650608137249947,-0.0160994790494442,-0.07814160734415054,-0.01978379487991333,0.008006836287677288,-0.02909545972943306,-0.037487488240003586,0.07839594781398773,-0.04395342990756035,0.08128964900970459,0.04417037218809128,0.05840562283992767,0.07579072564840317,-0.052748844027519226,-0.12111930549144745,-0.05847905948758125,0.0194713044911623,-0.03826317563652992,0.06071530282497406,-0.028333036229014397,0.09610247611999512,0.05916992574930191,-0.08967585861682892,0.05966401845216751,0.016253812238574028,0.02083664759993553,-0.0051470473408699036],[0.016804257407784462,-0.0460197851061821,0.05565953627228737,-0.010605840012431145,-0.11614448577165604,-0.0019367632921785116,0.1537962257862091,0.07395029067993164,-0.09980691969394684,0.010924466885626316,-0.07338523864746094,0.03405481576919556,0.00955634843558073,-0.01955302618443966,-0.001646692049689591,-0.13919006288051605,-0.06978516280651093,0.12520362436771393,-0.13581767678260803,0.1183648630976677,-0.14195707440376282,0.060262203216552734,-0.039300043135881424,0.05381019040942192,-0.008079067803919315,0.10619661957025528,0.0009213713346980512,0.06497389823198318,-0.0606532096862793,0.017874324694275856,0.059230972081422806,0.05258822813630104],[0.06431681662797928,0.015403690747916698,-0.08051348477602005,-0.07622604817152023,-0.0713043361902237,-0.057232566177845,-0.04419953003525734,-0.06243862956762314,0.028158705681562424,-0.03751135617494583,-0.004051191732287407,0.016366133466362953,0.05964750796556473,0.025570200756192207,-0.08590230345726013,-0.08599619567394257,0.03950902819633484,0.05296642333269119,0.009935767389833927,0.004643523134291172,0.09082506597042084,0.014673735946416855,-0.0590507872402668,0.017055612057447433,-0.08073374629020691,-0.031830497086048126,-0.07879326492547989,0.028846031054854393,-0.06757775694131851,0.07102582603693008,0.05473346263170242,-0.07354876399040222],[0.03452397510409355,-0.05298702418804169,-0.10037293285131454,0.11459726840257645,0.049001481384038925,-0.07834828644990921,0.09789365530014038,-0.08655886352062225,0.0010795921552926302,-0.018236367031931877,0.03967105224728584,-0.05862979218363762,-0.04210932180285454,0.06395076215267181,0.12348367273807526,-0.06984183937311172,0.051233239471912384,-0.06325655430555344,-0.039135273545980453,0.027143916115164757,-0.05540885403752327,0.050469063222408295,-0.09907373040914536,-0.07531432062387466,0.0013344436883926392,-0.1038324162364006,-0.07505645602941513,-0.09715627133846283,0.05389442667365074,0.026353744789958,-0.01975775882601738,0.006395045202225447],[0.02047974243760109,-0.08116983622312546,0.008637331426143646,0.05672421678900719,0.15173479914665222,0.02823750115931034,-0.07564989477396011,-0.06293140351772308,0.04017059504985809,0.016496067866683006,0.06912584602832794,-0.053023453801870346,0.0672839805483818,0.002602735534310341,-0.04379357025027275,-0.012133404612541199,0.038065169006586075,-0.062202904373407364,0.045033570379018784,-0.02349039912223816,-0.04173934459686279,-0.045896101742982864,-0.1267475187778473,-0.10778029263019562,-0.05035526305437088,0.04640304297208786,-0.05936507135629654,-0.0008090244955383241,0.05424685403704643,0.047878608107566833,-0.1240544319152832,-0.10681143403053284],[0.0024719350039958954,0.050315652042627335,-0.05771460011601448,-0.0783577561378479,0.06719717383384705,0.00206231907941401,-0.11560001969337463,0.05517595261335373,-0.0935111865401268,0.1250254511833191,0.05996721237897873,0.08631986379623413,-0.020019562914967537,0.035190753638744354,0.03422265127301216,0.0673786997795105,0.014796840958297253,0.028214633464813232,0.09405896067619324,0.04455828666687012,-0.06039513647556305,0.06171901151537895,0.058986563235521317,0.04029085859656334,-0.06722860783338547,-0.022403104230761528,0.08606892824172974,-0.06017395108938217,-0.02371450513601303,-0.033776599913835526,0.0701000839471817,-0.07101059705018997],[-0.028321828693151474,-0.02074989303946495,-0.05632500723004341,-0.0999574139714241,-0.03280912712216377,-0.0005005521234124899,0.006891944911330938,-0.049003809690475464,-0.0763309970498085,0.02022463083267212,0.02712148055434227,0.06637877225875854,-0.11798233538866043,0.0928182527422905,-0.03842151165008545,0.003198632039129734,-0.016055777668952942,0.03238895535469055,-0.08043239265680313,-0.06945426762104034,0.0681210607290268,0.014579697512090206,-0.08664570748806,-0.0446944460272789,0.044205572456121445,0.08308764547109604,-0.09705228358507156,-0.022247876971960068,-0.02829785645008087,-0.016175420954823494,-0.04134175553917885,0.06721905618906021],[0.037492088973522186,0.025272002443671227,0.04818207770586014,-0.04052839055657387,0.04013923555612564,-0.09058833122253418,0.12311490625143051,-0.06851973384618759,-0.11725426465272903,0.06842479109764099,-0.003582374658435583,0.012666335329413414,0.02133471705019474,0.015051642432808876,0.03659958019852638,0.04710795357823372,-0.027868207544088364,0.030914274975657463,-0.010990907438099384,-0.024616746231913567,-0.07120437175035477,0.0204941239207983,-0.05215854570269585,-0.07353896647691727,-0.025695286691188812,-0.03385058417916298,0.04545450955629349,0.022788841277360916,-0.12641075253486633,-0.028233546763658524,0.06628328561782837,-0.1166636273264885],[-0.016461722552776337,0.0016525454120710492,-0.024060677736997604,0.0014339314075186849,-0.11851661652326584,-0.08246290683746338,-0.01667839102447033,0.062471866607666016,-0.017166955396533012,0.035925399512052536,0.0017074218485504389,-0.0021928211208432913,0.06969024240970612,0.02488892152905464,0.021119117736816406,-0.006656015291810036,0.037273481488227844,-0.061352383345365524,-0.0008365516550838947,-0.0309507604688406,-0.09252868592739105,0.028150519356131554,-0.01127080712467432,-0.07756747305393219,0.051229849457740784,0.00030731092556379735,-0.104855015873909,0.023022430017590523,0.007287240121513605,0.05034095048904419,0.04769761860370636,-0.09875272959470749],[0.07245250791311264,-0.027945101261138916,-0.08569204807281494,0.013158752582967281,-0.0026433554012328386,-0.10984060913324356,-0.07218091934919357,0.026506757363677025,-0.10799098014831543,-0.04624498263001442,-0.07675967365503311,-0.08252819627523422,0.04871339350938797,0.03685152530670166,0.02849780023097992,-0.05008683726191521,-0.07560162991285324,0.07508563995361328,-0.026210442185401917,-0.13365694880485535,0.061046987771987915,0.11040178686380386,-0.04464684799313545,-0.0985594242811203,0.05245119705796242,-0.08682321012020111,-0.0975935310125351,0.021255578845739365,0.010159395635128021,-0.051297854632139206,-0.004307064227759838,-0.008169969543814659],[-0.11922988295555115,0.0630650594830513,-0.05988268926739693,0.08409705758094788,0.0033074994571506977,-0.030726999044418335,-0.06773294508457184,-0.06597469747066498,-0.04630381241440773,0.05405952408909798,-0.03528305143117905,0.037070125341415405,-0.03257149085402489,0.006675100419670343,0.10111883282661438,-0.016887815669178963,0.07073560357093811,0.017486607655882835,-0.05649877339601517,-0.08410762995481491,0.040359977632761,-0.016049543395638466,0.09508196264505386,0.0932573676109314,-0.1027797982096672,0.07413893938064575,-0.03921004757285118,0.11137956380844116,0.05786505341529846,-0.026248391717672348,-0.04012785479426384,-0.012190009467303753]]],"conv2/bias":[-0.0005226496723480523,5.904101954001817e-07,0.001780597842298448,0.0031564070377498865,-6.593196303583682e-06,-2.381253125349758e-06,0.004206488840281963,-1.2355478418157873e-07,0.00023040702217258513,-4.92450544697931e-06,-7.142236313484318e-08,-0.0014610231155529618,0.0029981599655002356,5.353257961360214e-07,-0.0004243783187121153,-2.3260913621925283e-06,1.0300906296834e-06,-1.14562499220483e-06,1.986720263857933e-07,-2.357066023250809e-06,4.85017437767965e-07,-0.00010460548946866766,1.0538230981183005e-06,-0.004044456407427788,-2.789733741792588e-07,0.004783899523317814,0.003018521936610341,2.726833159272246e-08,0.0005331478314474225,0.004215818829834461,3.026929960014968e-07,3.959124228458677e-07],"conv3/kernel":[[[0.00010915613529505208,0.05092187598347664,-0.02200048789381981,-0.051139380782842636,0.0772951990365982,-0.08057405799627304,-0.05027249455451965,0.011296557262539864,0.04861957207322121,-0.02886534295976162,-0.01868503727018833,0.11717252433300018,-0.04945740848779678,-0.07214916497468948,0.03798762336373329,0.06577698886394501,0.027716921642422676,0.00033430266194045544,-0.06000177562236786,0.042052190750837326,-0.04599859192967415,0.06347343325614929,-0.0419561006128788,0.07743124663829803,0.07496675848960876,-0.025089101865887642,0.07084772735834122,0.029993001371622086,-0.030528923496603966,0.022699670866131783,0.07598446309566498,0.008949609473347664,-0.04346166551113129,-0.03862570598721504,-0.022922532632946968,0.05807353928685188,-0.011762158945202827,-0.04781891033053398,0.055422279983758926,0.03600376471877098,-0.02666667476296425,0.09086573123931885,0.08082486689090729,-0.05189115181565285,-0.08649273216724396,0.03792048990726471,0.06521596014499664,0.03280584141612053,-0.08389147371053696,0.043149057775735855,0.07553839683532715,0.06784351915121078,0.050967738032341,-0.054286643862724304,0.0007871051784604788,-0.008687345311045647,0.06312035769224167,0.038700640201568604,-0.03943699598312378,0.09597166627645493,0.08753617107868195,-0.005527912639081478,0.03508126735687256,0.04847564920783043],[-0.011127211153507233,0.04887987673282623,0.00010444982763146982,0.02561928518116474,0.11582902073860168,0.051465220749378204,-0.07387881726026535,0.0007374201086349785,-0.02430599555373192,-0.004451313521713018,0.05850835517048836,-0.031755462288856506,0.023242438212037086,0.00621204636991024,-0.03697459027171135,-0.1088976263999939,0.05481612682342529,-0.07738859951496124,0.021899458020925522,-0.07939033210277557,-0.11527225375175476,-0.033763643354177475,-0.0354650653898716,-0.02926175855100155,0.058866627514362335,-0.01678583025932312,-0.06254953145980835,-0.018103109672665596,-0.03388512507081032,0.017883367836475372,0.08890457451343536,0.00982216838747263,-0.009629803709685802,0.03978147357702255,-0.11055967956781387,0.0004392216505948454,0.06421086192131042,0.0447472482919693,-0.05295213684439659,-0.049588076770305634,-0.11848676949739456,-0.02963372692465782,0.012871603481471539,-0.045507341623306274,-0.09292817115783691,-0.045425813645124435,-0.09803018718957901,0.067508265376091,0.011957350187003613,0.014784147031605244,0.025803295895457268,0.07037541270256042,-0.040092505514621735,-0.023454338312149048,0.017410211265087128,0.052740246057510376,-0.03025038354098797,0.03577699139714241,0.018266867846250534,0.054804727435112,-0.018302777782082558,0.0411827452480793,0.060000255703926086,-0.029097717255353928],[0.015454612672328949,0.013310655951499939,0.006341004278510809,-0.007201460190117359,-0.01426316425204277,0.05025427043437958,0.007250386755913496,0.024061955511569977,0.035089775919914246,0.07292689383029938,0.08923056721687317,0.08541294932365417,0.07578141242265701,-0.0794311985373497,-0.02569594979286194,0.018452677875757217,-0.07559071481227875,-0.05917053669691086,-0.07085724174976349,0.023632166907191277,-0.09007503092288971,0.02214619517326355,-0.05744776502251625,-0.03176642209291458,-0.04596851021051407,0.004846199415624142,0.06859368085861206,0.0011548156617209315,0.12314043194055557,0.0051201642490923405,0.08196187764406204,0.0345548614859581,0.041132424026727676,-0.04041890799999237,-0.016861379146575928,0.004936583805829287,-0.03641228377819061,-0.014288725331425667,-0.004750508349388838,0.06442271918058395,0.052590105682611465,-0.03644237667322159,0.11046688258647919,0.05855045095086098,-0.018321385607123375,0.08713817596435547,0.02250383421778679,0.09128214418888092,-0.0776364654302597,0.0642869845032692,0.07344949245452881,-0.030134817585349083,-0.03780105710029602,0.11084382236003876,-0.04029866307973862,-0.029408162459731102,0.024359941482543945,-0.03191481530666351,0.08859146386384964,0.08173303306102753,-0.021429985761642456,-0.015198484994471073,0.026258116587996483,0.02294677309691906],[-0.006721606943756342,0.02229163981974125,0.054991334676742554,0.08272980153560638,0.028665147721767426,-0.019948510453104973,0.004013814032077789,-0.02807747758924961,-0.049352873116731644,0.026969287544488907,-0.05222078040242195,-0.045803844928741455,-0.09868050366640091,0.02563491277396679,0.0343380905687809,-0.08183149248361588,0.07534860819578171,-0.019008908420801163,0.09804420173168182,0.08197321742773056,0.0820518210530281,-0.040797360241413116,-0.05151733383536339,0.04766598343849182,-0.06759890168905258,0.024872656911611557,0.034867219626903534,-0.06321611255407333,-0.10347472876310349,0.051569391041994095,0.06614179164171219,0.0030770679004490376,0.052120912820100784,0.07167663425207138,-0.020352745428681374,0.0019707349129021168,0.030915895476937294,-0.0011347881518304348,-0.0267011821269989,0.04809121415019035,0.0014655818231403828,-0.015165116637945175,0.0017502040136605501,0.12233409285545349,-0.06928648799657822,-0.03689808025956154,-0.05638759955763817,-0.028150754049420357,0.09289218485355377,-0.011343865655362606,-0.06731074303388596,-0.02571694552898407,0.07457119971513748,-0.05249776691198349,-0.05245988070964813,0.07621939480304718,-0.04604683816432953,-0.08182960748672485,0.02993677742779255,-0.0059972801245749,0.024413175880908966,0.021757962182164192,0.04586879163980484,-0.019453348591923714],[0.023802433162927628,0.11081881076097488,-0.022805944085121155,-0.05803191661834717,-0.12846630811691284,0.01972285285592079,0.02344142273068428,0.10455656796693802,-0.10097914934158325,-0.09951920062303543,-0.102183036506176,-0.09467121213674545,0.030046656727790833,0.0741138756275177,0.04942787066102028,-0.07159264385700226,-0.013695266097784042,0.0434190072119236,-0.026125935837626457,-0.007732571102678776,-0.020566055551171303,-0.05485304072499275,0.020862264558672905,-0.0696650817990303,-0.11319249868392944,0.0343334786593914,0.10862318426370621,-0.06586151570081711,0.04434870555996895,-0.10733400285243988,0.025013059377670288,-0.08734983205795288,-0.10062669217586517,0.0726008266210556,-0.0221417173743248,-0.06511750817298889,-0.07635103166103363,0.060398221015930176,0.06943999975919724,0.04845718666911125,-0.016001179814338684,0.003962320741266012,0.020377131178975105,0.08514872193336487,-0.07077138870954514,-0.10674019157886505,0.05868210271000862,-0.003644206328317523,0.07199540734291077,-0.08082029968500137,-0.04373155161738396,-0.00847250409424305,0.03340577706694603,-0.09519117325544357,0.0670946016907692,0.012034746818244457,-0.031363144516944885,-0.0656745582818985,-0.09161021560430527,-0.05314302444458008,-0.08791673183441162,-0.0578010119497776,-0.13078658282756805,-0.039007652550935745],[-0.026860620826482773,-0.04479774460196495,0.024131618440151215,-0.06765956431627274,-0.04173215106129646,0.05903294309973717,-0.05693783238530159,-0.044249456375837326,0.08935824781656265,-0.02886033244431019,0.10311443358659744,0.06637264788150787,0.06889396160840988,0.008387293666601181,0.038933996111154556,0.005507265217602253,0.025904463604092598,0.0072468421421945095,-0.0019580191001296043,-0.07719172537326813,0.04876590892672539,0.07332300394773483,0.06484799832105637,0.06639514118432999,-0.018210627138614655,0.03844079375267029,0.009814147837460041,-0.06103350967168808,-0.030394045636057854,0.04382384940981865,0.06528943032026291,0.09369997680187225,0.050979625433683395,-0.04817567765712738,-0.10176286846399307,-0.013198069296777248,0.10758092999458313,-0.02247457019984722,-0.04943789169192314,-0.06591452658176422,0.07105835527181625,0.048540372401475906,0.04404040426015854,-0.03203674778342247,0.023242752999067307,0.03129242733120918,-0.07268381118774414,0.05285168066620827,-0.05141964927315712,0.055320385843515396,0.10966914147138596,-0.0022419150918722153,-0.04134829342365265,-0.03817562013864517,0.013504721224308014,-0.04597976431250572,-0.0251203253865242,-0.028164763003587723,0.03256208449602127,0.09927431493997574,0.009784912690520287,0.10154098272323608,-0.032655660063028336,0.021601388230919838],[-0.002436944982036948,-0.06776922941207886,-0.00737569946795702,0.06964125484228134,0.004895137622952461,-0.05132872983813286,-0.011338290758430958,-0.10138233751058578,-0.02931881882250309,0.03949630632996559,-0.06771118938922882,-0.06378096342086792,-0.026670649647712708,0.05000060796737671,0.07207988947629929,0.0295706819742918,-0.009059213101863861,-0.02911435253918171,-0.06027081981301308,0.030812876299023628,-0.015479807741940022,0.0340232290327549,0.023021748289465904,0.019077427685260773,-0.014271344058215618,0.07700204104185104,-0.052284903824329376,-0.03352131322026253,-0.05895330011844635,-0.12103688716888428,0.047507576644420624,0.03297390788793564,0.008576798252761364,-0.041986167430877686,0.12315617501735687,-0.027133528143167496,-0.033685311675071716,-0.031174881383776665,0.035572975873947144,0.09100085496902466,-0.010608529672026634,-0.03438468277454376,-0.06731444597244263,-0.060690850019454956,0.07889314740896225,-0.02627953328192234,0.01659921370446682,-0.02953396923840046,0.01926834136247635,-0.0018890834180638194,0.02399350143969059,0.013097161427140236,0.120179682970047,-0.05858754739165306,0.0712183266878128,0.05913357809185982,-0.04289248585700989,0.040835149586200714,-0.036721982061862946,-0.07121486961841583,-0.045926351100206375,0.02325107716023922,0.015909584239125252,-0.023147020488977432],[-0.04858162999153137,-0.07046287506818771,0.05442938581109047,-0.04216713830828667,-0.025576042011380196,0.049978796392679214,0.024440888315439224,-0.10518017411231995,0.09108327329158783,-0.028546800836920738,0.08075520396232605,-0.07445565611124039,0.02080393396317959,-0.06244448572397232,-0.07972358167171478,0.0780276358127594,-0.04376924782991409,0.011955006048083305,0.018764564767479897,0.027719546109437943,-0.024074025452136993,0.0822567492723465,0.04735560342669487,-0.011733153834939003,0.08131107687950134,-0.07584130764007568,0.04904096946120262,-0.011289715766906738,0.0005314222071319818,0.08936844021081924,-0.007050805259495974,0.05256260186433792,-0.026949789375066757,-0.03280161693692207,-0.07516027987003326,-0.00933845154941082,-0.028656071051955223,-0.07300549000501633,-0.00303186965174973,0.044985331594944,0.030475156381726265,0.07705577462911606,-0.07111383974552155,-0.024727296084165573,-0.018508577719330788,0.08134734630584717,0.07227170467376709,0.03668363019824028,-0.01578471250832081,-0.05082687363028526,0.07694324851036072,0.03343877196311951,-0.06089075654745102,-0.08561915159225464,-0.058855388313531876,0.039247073233127594,-0.059649791568517685,0.05498860031366348,0.08377376198768616,-0.05973433330655098,0.08663350343704224,-0.04950588196516037,0.015190749429166317,0.06012677401304245],[0.025054508820176125,0.06179797276854515,0.04609052836894989,0.016747266054153442,0.04648859053850174,-0.038959406316280365,0.03480594977736473,0.01619528792798519,0.059431109577417374,0.03745114430785179,0.005541360005736351,0.09997120499610901,-0.06617099791765213,0.028356751427054405,-0.08158443868160248,-0.09879875183105469,0.004497136455029249,0.05179225653409958,-0.021264521405100822,0.035145483911037445,-0.024068700149655342,0.03139432892203331,-0.05311933904886246,0.016369393095374107,0.0929623693227768,-0.04963691160082817,0.06544216722249985,-0.041557442396879196,0.024765579029917717,0.0022821007296442986,0.05149206519126892,0.08085094392299652,0.07086829841136932,0.005655071698129177,-0.04939587041735649,0.03476441651582718,0.05390129238367081,-0.001698211650364101,0.06365082412958145,0.01878989115357399,0.0012734431074932218,0.04036711901426315,0.10590237379074097,0.001256396877579391,-0.0603862926363945,0.01908676140010357,0.009675020352005959,0.09401839226484299,-0.027185577899217606,-0.006369295995682478,-0.04652813449501991,0.05014828220009804,-0.027735130861401558,0.020708398893475533,0.050412364304065704,-0.023154789581894875,-0.0008223304175771773,0.11113324761390686,-0.01758796162903309,0.057846441864967346,0.08255434036254883,0.04408254101872444,0.030171653255820274,0.06981147080659866],[0.05973660573363304,0.02706265263259411,-0.07460519671440125,-0.05224643275141716,0.08874457329511642,0.08684934675693512,-0.018706001341342926,-0.044625174254179,-0.007543044630438089,-0.03895257040858269,-0.027614211663603783,-0.0396372526884079,-0.016212863847613335,-0.0377555787563324,0.06386124342679977,-0.08187595009803772,-0.03290640190243721,-0.07092063128948212,-0.04668240249156952,-0.06491360068321228,0.017089074477553368,-0.01912023313343525,0.011583223007619381,0.02947484701871872,0.03065655380487442,-0.00010266419849358499,-0.042009033262729645,0.020606057718396187,-0.05390559136867523,-0.02900751493871212,0.07015369832515717,0.020442364737391472,0.10698740184307098,-0.051471419632434845,-0.036482300609350204,0.04749413952231407,0.0730898454785347,-0.05226115509867668,-0.011308161541819572,-0.08605272322893143,-0.07792964577674866,0.04081841558218002,0.039145756512880325,-0.05515721067786217,-0.07060731947422028,-0.018269328400492668,-0.019028818234801292,-0.008158831857144833,-0.039648331701755524,0.048943761736154556,0.08790817856788635,0.03923071175813675,0.01631506159901619,0.008626570925116539,-0.05330086499452591,-0.08343226462602615,0.06689652055501938,-0.011764191091060638,0.0967649444937706,-0.014578835107386112,0.03416820615530014,0.06275488436222076,-0.010461303405463696,0.07607032358646393],[0.04972618818283081,0.05920149013400078,-0.11372288316488266,-0.054533153772354126,-0.03177089989185333,-0.016518810763955116,-0.04805033653974533,0.031127918511629105,-0.040513597428798676,-0.0415235236287117,-0.023977911099791527,-0.06941283494234085,-0.02812984585762024,-0.05661856383085251,-0.08042891323566437,0.0627291277050972,0.0013356786221265793,-0.0346493273973465,-0.055567417293787,0.030337855219841003,-0.04555739089846611,-0.05760468915104866,0.005148963071405888,-0.04752044007182121,-0.0775090903043747,0.05979606509208679,0.058071937412023544,-0.06345759332180023,-0.08249794691801071,0.03098236955702305,-0.01317648496478796,0.025246648117899895,-0.04430397227406502,0.014103065244853497,-0.08761458843946457,-0.005458391271531582,-0.056377947330474854,0.003850489854812622,-0.007754185236990452,-0.01827654428780079,-0.07469747960567474,-0.07996157556772232,0.018425360321998596,0.06855648756027222,-0.030053773894906044,-0.05715853348374367,-0.08364098519086838,0.04212233051657677,-0.036843713372945786,-0.021857772022485733,-0.04806040599942207,-0.10766135901212692,-0.020799295976758003,-0.06607907265424728,-0.04415936768054962,-0.008727683685719967,1.1387906852178276e-05,-0.1124730110168457,0.009496316313743591,-0.006622815039008856,0.0016375182894989848,-0.05996716767549515,-0.04010699316859245,-0.032190993428230286],[0.02838367410004139,0.053846269845962524,0.015050536952912807,0.011798398569226265,-0.05123259127140045,0.08636926859617233,-0.04971696808934212,-0.0731702372431755,0.010249502025544643,-0.02083621546626091,-0.02415301837027073,0.05203917995095253,-0.08045917749404907,0.023861974477767944,0.08896505832672119,0.07143080979585648,0.06886203587055206,-0.05894723907113075,-0.08602707833051682,-0.018646571785211563,0.054823268204927444,0.0066905939020216465,0.03398944437503815,-0.028213733807206154,0.002187622245401144,0.033295001834630966,0.050357695668935776,0.03507927805185318,-0.023004200309515,0.031430114060640335,-0.03813239187002182,-0.06800805777311325,0.01981288008391857,-0.014655186794698238,0.0545177087187767,-0.02974609285593033,-0.02329244278371334,-0.005144405644387007,-0.04308987408876419,-0.014920789748430252,0.003156636143103242,-0.05084039643406868,-0.003868636442348361,-0.0017919372767210007,-0.043125685304403305,-0.020361002534627914,0.03133915364742279,0.044466532766819,0.01791846565902233,0.01119906920939684,-0.03197815269231796,0.042737677693367004,0.024354446679353714,0.030165204778313637,-0.023547258228063583,0.0015968745574355125,0.03919907286763191,0.047500502318143845,-0.004381546750664711,0.0417923629283905,-0.04662567749619484,-0.02747674658894539,-0.012003378011286259,-0.0012653027661144733],[0.04407685250043869,-0.026383889839053154,0.05254323408007622,-0.08002360910177231,-0.06809496879577637,0.06889742612838745,-0.003315781708806753,0.07236193120479584,-0.0713079497218132,-0.057376131415367126,-0.0033381986431777477,-0.05487500876188278,0.018140360713005066,-0.06218269094824791,-0.01323089562356472,-0.02469637244939804,0.03608742728829384,0.00019771026563830674,-0.0470641627907753,-0.013806607574224472,0.09125642478466034,-0.08729445189237595,-0.07029303908348083,0.008525478653609753,-0.05226164683699608,0.02540581300854683,0.07571327686309814,0.05434398353099823,0.042977623641490936,-0.018089648336172104,-0.04643980786204338,-0.026640955358743668,-0.023190367966890335,0.05626555532217026,0.0006952135590836406,-0.001037288224324584,-0.044378627091646194,-0.015330483205616474,0.03022553026676178,-0.028552263975143433,-0.04306018352508545,-0.015107096172869205,0.015428019687533379,-0.032509561628103256,0.04379911348223686,-0.010186669416725636,-0.015199881047010422,-0.08115515857934952,0.06131114438176155,-0.01145112793892622,-0.05055541545152664,-0.011766389943659306,0.06192523241043091,-0.0028742128051817417,-0.017693981528282166,-0.044509079307317734,-0.02752292901277542,0.05113403871655464,-0.00798732414841652,-0.10331647843122482,0.0456121563911438,-0.0909912958741188,0.019802894443273544,0.05290384218096733],[-0.030999938026070595,0.03965374454855919,-0.06633444875478745,-0.013979376293718815,-0.04372571036219597,-0.037404924631118774,0.031105542555451393,-0.08794282376766205,0.07062901556491852,0.023308731615543365,0.091040700674057,0.0626535639166832,0.038683999329805374,-0.004517264198511839,0.031129470095038414,-0.06373508274555206,-0.07174837589263916,-0.06166002154350281,-0.095257967710495,-0.019725147634744644,0.02053195983171463,-0.038764838129282,0.06045947223901749,0.07416678220033646,0.09253586828708649,-0.022645238786935806,0.053968798369169235,-0.07087855041027069,-0.07317372411489487,0.039358168840408325,0.023676618933677673,0.08679761737585068,-0.043102845549583435,-0.04791766777634621,-0.09335475414991379,0.045435581356287,-0.026110567152500153,0.07277686148881912,-0.04067262262105942,-0.0459771454334259,-0.0673636719584465,0.030606985092163086,0.03643888607621193,-0.019724451005458832,0.032155100256204605,0.05696071684360504,0.006278452463448048,0.031746987253427505,-0.01648690178990364,0.06450852751731873,-0.01756744459271431,0.07101678848266602,-0.02044457197189331,-0.006126984488219023,0.045318663120269775,-0.015465708449482918,0.05645005404949188,0.05946024879813194,0.037423308938741684,0.006400289013981819,-0.0008282969938591123,0.023761818185448647,-0.02354511059820652,-0.027145864441990852],[-0.05809991806745529,-0.05378315970301628,-0.07225345820188522,0.026601968333125114,0.07509490102529526,-0.011922303587198257,-0.029336171224713326,0.0700504332780838,-0.011247467249631882,-0.02041052281856537,0.10248937457799911,-0.046036019921302795,0.06516968458890915,-0.022776328027248383,-0.0754186287522316,-0.0038787382654845715,-0.0701073408126831,-0.016789035871624947,-0.0007204704452306032,-0.05589500814676285,-0.06576310843229294,-0.02914334461092949,-0.08383446931838989,-0.05014156922698021,0.02487252652645111,-0.007883647456765175,-0.05838616192340851,0.08885181695222855,0.028113313019275665,0.02329454943537712,0.02025536634027958,-0.015021019615232944,-0.034803979098796844,-0.0022412044927477837,-0.028300819918513298,0.03804121911525726,-0.035456039011478424,-0.02118103764951229,-0.011895081959664822,-0.09916265308856964,-0.04411488026380539,0.05849296972155571,-0.03725714609026909,-0.043460700660943985,-0.09629622101783752,-0.05384866148233414,-0.042966678738594055,-0.03859419748187065,0.056778956204652786,-0.025682803243398666,0.03411528468132019,0.047564927488565445,-0.058979813009500504,0.026773998513817787,0.022163275629281998,0.014472125098109245,0.03574662655591965,-0.09419330954551697,0.011721529066562653,0.07245143502950668,-0.05035751685500145,0.03895214945077896,-0.040727272629737854,-0.03743639215826988],[-0.033573660999536514,-0.08980067074298859,-0.0947265550494194,-0.011942214332520962,-0.054914917796850204,0.01789655163884163,0.005591157823801041,-0.07505093514919281,0.09319545328617096,0.06895091384649277,0.06475438922643661,0.00913096684962511,-0.06220905855298042,-0.061214130371809006,-0.05132249370217323,-0.010348389856517315,-0.031064821407198906,0.08000259846448898,0.0033272569999098778,-0.006577576510608196,-0.08884868770837784,0.07756265997886658,0.05373094975948334,-0.018756762146949768,0.02297983691096306,0.042519811540842056,-0.09925577789545059,-0.02214910089969635,0.08399427682161331,-0.028774743899703026,0.06176098436117172,0.0014420311199501157,-0.04677291214466095,0.02482200227677822,-0.0504414401948452,-0.005474049597978592,0.054350320249795914,-0.09227955341339111,-0.06148427724838257,-0.037878915667533875,0.05165904760360718,0.037858352065086365,-0.04582962021231651,-0.10654313117265701,0.02904549054801464,0.06381836533546448,-0.02996494062244892,-0.03587634116411209,-0.03382210060954094,-0.013319737277925014,-0.016742723062634468,0.03990442678332329,-0.021099312230944633,0.08420628309249878,-0.023912716656923294,-0.028226198628544807,0.06425758451223373,-0.05039411038160324,0.05110174044966698,0.06069823354482651,-0.06401091068983078,0.09062419086694717,0.025505201891064644,-0.046281058341264725],[-0.04346511885523796,-0.06720664352178574,-0.06472575664520264,-0.01694178394973278,-0.056731026619672775,0.04162700101733208,-0.05964618921279907,-0.022530578076839447,-0.008421104401350021,0.04677877202630043,-0.05051310732960701,-0.054144129157066345,-0.011066097766160965,-0.0003218475030735135,-0.05885850638151169,-0.10941114276647568,-0.07173354178667068,-0.08327653259038925,-0.04455367848277092,-0.10793880373239517,-0.1125788688659668,-0.024675067514181137,0.018263187259435654,0.04435887932777405,0.023923182860016823,0.04612450674176216,-0.09034053981304169,0.026361307129263878,-0.04049601033329964,-0.018714582547545433,-0.006002756766974926,0.016472434625029564,-0.0077696000225842,-0.029391800984740257,-0.014815843664109707,-0.030497657135128975,0.06866072118282318,0.015847114846110344,-0.031108025461435318,-0.08965026587247849,-0.06429033726453781,0.01540882047265768,-0.020430445671081543,0.04666535183787346,0.04982110857963562,-0.008063580840826035,-0.0422157347202301,0.09785783290863037,0.05710703507065773,0.0004472588771022856,-0.04140659421682358,0.06062326580286026,-0.0008720075711607933,-0.04196365922689438,0.05215604603290558,-0.050506219267845154,-0.016404982656240463,-0.04148493707180023,0.028000598773360252,0.05512560158967972,0.07807102799415588,0.07023078203201294,-0.005083783064037561,0.052451666444540024],[0.01642863266170025,-0.038404256105422974,0.08482179790735245,0.014631753787398338,0.09330201148986816,-0.04532048851251602,-0.052774012088775635,-0.04038875177502632,-0.007584595121443272,-0.020471233874559402,-0.05129808187484741,0.0554877407848835,0.04979939013719559,-0.03513598442077637,0.05658344924449921,-0.08201637119054794,-0.03183746337890625,0.02140330709517002,0.05865895003080368,-0.0904952734708786,-0.03601333126425743,0.007484206464141607,-0.09565245360136032,0.056471794843673706,-0.014518212527036667,0.06646483391523361,-0.0925106331706047,-0.0450424998998642,-0.03988465294241905,-0.057392772287130356,0.051960863173007965,-0.017836077138781548,0.052258219569921494,0.05411371961236,-0.09599872678518295,-0.013198466040194035,0.04398778825998306,-0.008959866128861904,0.029069943353533745,-0.06200729310512543,0.008813745342195034,0.0801113098859787,0.026661816984415054,0.08166036754846573,0.05020376667380333,0.00232972321100533,-0.04544764384627342,-0.08171731978654861,0.05115380883216858,0.032623883336782455,-0.026464642956852913,-0.06174130365252495,-0.05538978427648544,0.08535898476839066,0.029745906591415405,-0.09392115473747253,-0.06648624688386917,0.06120619550347328,0.060050755739212036,0.016670839861035347,-0.06300777196884155,0.0821438655257225,0.051769156008958817,-0.04519714415073395],[0.059186939150094986,0.058534473180770874,0.004720483440905809,-0.03546517342329025,0.06116408109664917,-9.587292151991278e-05,0.13195423781871796,0.10485973209142685,0.0619741752743721,0.012259316630661488,-0.03394179791212082,0.0664297342300415,-0.061565205454826355,-0.022601597011089325,0.0410737618803978,0.07316801697015762,0.050060950219631195,0.10408926755189896,0.09332837164402008,0.050274208188056946,0.03777420148253441,0.017489735037088394,-0.016136283054947853,-0.047580186277627945,0.03032384067773819,0.07622870057821274,0.024994175881147385,-0.0491873063147068,-0.04740500450134277,0.0032918606884777546,-0.0182189978659153,0.03455166891217232,-0.015480534173548222,0.06568922102451324,0.022876877337694168,-0.032069429755210876,0.0028415352571755648,0.0902847945690155,0.00597160030156374,-0.052678029984235764,0.03989534452557564,-0.016985220834612846,-0.015993930399417877,0.0912676751613617,0.027292491868138313,-0.037759602069854736,-0.02907216176390648,-0.03074667789041996,0.008602888323366642,0.008833750151097775,0.011579853482544422,0.00555241946130991,-0.005061731673777103,0.0008776437607593834,-0.06703012436628342,-0.04368161782622337,-0.017248589545488358,0.0029872669838368893,0.018150994554162025,-0.010735061019659042,0.021474281325936317,-0.03755613788962364,0.03368042781949043,-0.01714165508747101],[0.003825898515060544,0.045931391417980194,-0.014203518629074097,-0.010548259131610394,0.039654504507780075,-0.04504098743200302,0.02769445814192295,-0.08986500650644302,-0.0862964317202568,0.038138292729854584,-0.030182404443621635,-0.0011013145558536053,-0.035111259669065475,0.06986992806196213,0.010001752525568008,-0.0245826356112957,0.048498690128326416,0.08518518507480621,-0.022696474567055702,-0.024242065846920013,-0.019329149276018143,0.06996629387140274,-0.04317867010831833,0.041954949498176575,-0.063691146671772,0.014109778217971325,-0.03720436990261078,-0.0021805083379149437,-0.08314241468906403,-0.011928792111575603,0.06520175188779831,-0.017872832715511322,-0.04316070303320885,-0.04702436923980713,0.019493991509079933,-0.014029387384653091,-0.004655384458601475,-0.04398751258850098,0.052883081138134,0.08355603367090225,0.08192398399114609,-0.029607875272631645,-0.0429375022649765,-0.07558099180459976,0.027258720248937607,0.05002107843756676,0.0004250890633556992,0.04405364394187927,-0.021652858704328537,-0.02951672114431858,0.011642597615718842,-0.05500226095318794,0.09212961792945862,-0.08337752521038055,0.06774427741765976,0.09909708052873611,0.02313050627708435,0.0398389957845211,0.007681540213525295,-0.0732789933681488,-0.06832465529441833,-0.019899746403098106,-0.06113363802433014,-0.05470919981598854],[0.041805919259786606,0.04621481895446777,-0.010875889100134373,0.060609012842178345,-0.0765111893415451,0.048112936317920685,0.02417748048901558,0.00934929121285677,-0.018103566020727158,-0.024815436452627182,-0.02663324773311615,-0.05868760496377945,-0.055794522166252136,-0.022198153659701347,0.00790503527969122,-0.0700920820236206,0.004657926503568888,0.06211987882852554,-0.0803530216217041,-0.037106242030858994,0.08083129674196243,-0.034014277160167694,-0.010966486297547817,0.04224083945155144,-0.0077172499150037766,0.023717453703284264,-0.011372895911335945,0.058956071734428406,-0.0421065092086792,-0.0623873770236969,-0.09368220716714859,-0.0310263279825449,-0.02198510244488716,-0.001975664868950844,0.001991684315726161,0.003314404282718897,-0.018286829814314842,0.018781747668981552,0.053799375891685486,-0.035273369401693344,-0.06011733412742615,-0.03091157227754593,-0.006811974570155144,-0.057545874267816544,-0.05738355219364166,0.037088677287101746,-0.014251151122152805,0.03223112225532532,-0.021404538303613663,-0.00027932069497182965,0.04880208894610405,-0.08324792981147766,0.03741119056940079,0.0013689330080524087,-0.016662567853927612,0.07762719690799713,0.024976322427392006,0.05697397142648697,-0.004265336785465479,0.044586073607206345,-0.10251843184232712,0.024041766300797462,-0.008482000790536404,-0.04915192350745201],[-0.053508397191762924,0.010322457179427147,-0.017807872965931892,0.03243241459131241,-0.038308996707201004,-0.08339814841747284,-0.038761917501688004,0.0012943062465637922,0.008295895531773567,0.04484499618411064,-0.056787844747304916,0.01328980177640915,0.0558997318148613,0.010606324300169945,-0.022049419581890106,0.02204946056008339,-0.053590137511491776,-0.043712735176086426,-0.007648238446563482,-0.026897870004177094,0.028785603120923042,0.04517566040158272,-0.03653573989868164,0.02100391685962677,0.040361370891332626,-0.05193755775690079,0.01590631529688835,-0.07327459007501602,0.08764205127954483,0.07633528113365173,-0.0653742328286171,0.027605460956692696,-0.0017454305198043585,-0.03565377742052078,-0.003727473085746169,0.005472833756357431,-0.03223973885178566,0.07199367880821228,0.07429061084985733,-8.770886051934212e-05,0.023862164467573166,-0.01357171032577753,-0.037271756678819656,0.029265617951750755,-0.018652644008398056,0.010808844119310379,0.009806203655898571,-0.031997956335544586,-0.0842706561088562,0.03434748947620392,-0.031288765370845795,0.05275178700685501,-0.07138211280107498,0.048562631011009216,-0.01221310906112194,-0.017712892964482307,0.026779739186167717,0.03641190007328987,-0.04884369671344757,0.008149364031851292,0.03982594236731529,-0.03252028301358223,-0.03934818506240845,0.06859046965837479],[-0.027495289221405983,-0.07636910676956177,0.02459952048957348,-0.05472026392817497,0.10719534754753113,-0.0018317874055355787,0.029465552419424057,-0.002912302268669009,-0.034312449395656586,0.07172378897666931,-0.021338988095521927,0.09339433908462524,0.06647907197475433,-0.057154808193445206,-0.07005584239959717,0.025751350447535515,0.054501134902238846,-0.0666990801692009,-0.06758689135313034,-0.013544630259275436,-0.01835593394935131,0.005925301928073168,0.00031027483055368066,0.037303220480680466,0.07192032039165497,-0.06859324872493744,0.0562446303665638,0.038317613303661346,0.015088953077793121,0.09369813650846481,0.10428415238857269,0.07830967754125595,0.030714750289916992,0.04660957679152489,0.00681469589471817,0.008460658602416515,0.0033877771347761154,0.05126313865184784,-0.01832335628569126,0.0006689573638141155,-0.09947151690721512,0.0402500182390213,-0.0074607087299227715,0.05115894228219986,-0.048757340759038925,0.01508580893278122,-0.08058132976293564,0.09392991662025452,0.06133938208222389,-0.006972573231905699,-0.01622200757265091,-0.003481090534478426,-0.08634807914495468,-0.05875491350889206,-0.07596829533576965,-0.08438824117183685,0.05721917375922203,-0.0051866564899683,0.06826911866664886,0.09847838431596756,-0.029195474460721016,0.03858804702758789,-0.006193885114043951,-0.017158394679427147],[-0.013016422279179096,0.06691505014896393,0.0050363908521831036,0.015385076403617859,-0.06657435745000839,0.0565979890525341,0.0330052487552166,-0.014683661982417107,0.04007823392748833,0.007983426563441753,0.07455624639987946,0.07081665843725204,0.11942019313573837,-0.03839971497654915,0.061809275299310684,-0.12339729070663452,0.05308709293603897,-0.10269168019294739,-0.08191618323326111,0.03493402525782585,-0.0766637921333313,0.03920336440205574,-0.0924597978591919,0.06101132929325104,0.0655607357621193,0.006177625618875027,-0.049517370760440826,0.12029729038476944,0.06567055732011795,0.09204525500535965,0.017728660255670547,0.07540947198867798,-0.00558056216686964,0.015148764476180077,-0.042909760028123856,0.026213867589831352,0.08439547568559647,0.0058445255272090435,-0.08715665340423584,-0.03560658544301987,0.02866368368268013,0.033692605793476105,0.02396419085562229,-0.036161456257104874,-0.03127697855234146,0.07892019301652908,-0.05779849365353584,-0.020066343247890472,-0.09092432260513306,0.062382057309150696,0.1153593584895134,0.0746074765920639,-0.009399197064340115,0.06929237395524979,-0.02146572433412075,-0.07590862363576889,0.0034437114372849464,0.10783924162387848,0.09415331482887268,-0.04179653897881508,0.01802668534219265,-0.041381288319826126,0.047541294246912,0.05200067535042763],[-0.02571830525994301,-0.03861304745078087,-0.03936653584241867,0.012617861852049828,0.02718452177941799,-0.04607503116130829,0.08858189731836319,0.06261033564805984,0.03989184647798538,0.015070697292685509,-0.03284897655248642,-0.04747394099831581,0.07330971956253052,0.03785509988665581,-0.03491886332631111,0.061899419873952866,0.018627092242240906,0.0251502376049757,-0.0671551302075386,-0.048706069588661194,-0.06535676121711731,-0.02690049074590206,0.05676783248782158,0.030447332188487053,-0.04943440854549408,0.0017523093847557902,-0.03225111588835716,0.013587304390966892,0.02195151336491108,0.01617410220205784,-0.04024732485413551,0.022046048194169998,-0.06006938964128494,-0.05402513965964317,0.0879325121641159,0.016363302245736122,0.024682432413101196,0.04916633665561676,0.0540204793214798,0.06649032235145569,0.07954008132219315,-0.005323456600308418,0.06905785202980042,-0.0025553759187459946,0.10002666711807251,-0.07026036083698273,0.09652858972549438,0.06130211055278778,0.010873701423406601,-0.038717832416296005,-0.010439246892929077,-0.01337462943047285,0.01001027226448059,0.05882894620299339,0.002401762641966343,-0.04266369715332985,0.0445876345038414,-0.020152194425463676,-0.05450938269495964,-0.006362305488437414,0.04481850937008858,-0.036417942494153976,-0.042837586253881454,-0.020265279337763786],[-0.026540566235780716,-0.028831975534558296,-0.045305583626031876,-0.0932445079088211,-0.009994677267968655,-0.07976563274860382,-0.054095037281513214,-0.03967566788196564,0.07501368224620819,0.005173865705728531,0.0454145148396492,0.07939218729734421,0.09115288406610489,0.013647663407027721,-0.06338023394346237,0.03485812991857529,-0.10723412781953812,-0.1009245216846466,-0.058166299015283585,-0.05357656255364418,-0.05676344409584999,0.05880965664982796,-0.06759514659643173,-0.00584561750292778,-0.036163851618766785,-0.01889887824654579,-0.0024164284113794565,0.057824693620204926,0.041401274502277374,-0.05440790578722954,-0.03751221299171448,-0.046571727842092514,0.06570146977901459,-0.05697339028120041,0.02258271351456642,0.03461827337741852,0.05417369306087494,-0.06947548687458038,-0.022875551134347916,0.04936504364013672,0.01031438261270523,0.029168235138058662,0.007272070739418268,-0.033662281930446625,0.014091883786022663,-0.019360432401299477,-0.1042061448097229,0.041941702365875244,-0.058370303362607956,-0.012545164674520493,-0.005809813737869263,0.030980292707681656,0.08144598454236984,-0.02337208017706871,-0.010957654565572739,-0.09921091794967651,0.017124144360423088,0.023314805701375008,-0.07761726528406143,-0.010162697173655033,-0.056109823286533356,-0.03411348909139633,0.08329708129167557,0.026657570153474808],[0.04865337908267975,0.0006265607080422342,-0.11312023550271988,0.007434777449816465,0.07938199490308762,-0.0560089610517025,0.026082202792167664,0.08067551255226135,-0.039566103368997574,-0.0378737598657608,0.042811766266822815,-0.04333052039146423,0.08826328068971634,-0.046048928052186966,0.0640948936343193,0.04832228273153305,-0.05818900465965271,-0.09804049134254456,-0.008641921915113926,0.03165772929787636,-0.05145642161369324,0.07338639348745346,0.0038250198122113943,0.06279036402702332,0.0043115317821502686,-0.05274202302098274,-0.09846083074808121,0.1094275638461113,-0.058791957795619965,-0.029184581711888313,-0.04046744480729103,0.07324748486280441,0.07433006167411804,-0.05403248220682144,-0.09848295152187347,0.05516066029667854,0.07048899680376053,-0.00881374441087246,0.05798682942986488,-0.01934511959552765,0.03524894267320633,0.10029929876327515,0.11116907745599747,-0.03041178546845913,-0.08286337554454803,0.05110187828540802,-0.078997902572155,-0.001085705473087728,-0.08097603172063828,0.04627220705151558,0.014836946502327919,0.08649257570505142,-0.10492900758981705,0.04799477756023407,-0.08891421556472778,0.06357292830944061,-0.014563094824552536,-0.027744313701987267,0.050588496029376984,0.020675307139754295,-0.021266326308250427,0.023218685761094093,0.08622271567583084,0.03151978179812431],[0.04468435421586037,0.07183307409286499,-0.016367606818675995,0.018386589363217354,0.0052124569192528725,0.001916453125886619,0.08773750066757202,0.010289201512932777,0.05876417085528374,0.000346622517099604,-0.03928901627659798,-0.06587237864732742,-0.05043452978134155,-0.004674264695495367,-0.029398901388049126,-0.03029380366206169,-0.029992060735821724,0.00046315559302456677,0.04787015542387962,0.07447986304759979,0.06336357444524765,0.01415453664958477,-0.007744904141873121,-0.0575411282479763,0.019545825198292732,0.02727813459932804,0.04836992546916008,-0.040100667625665665,0.056217778474092484,-0.06010642275214195,-0.03981972485780716,0.01192037109285593,-0.006772620603442192,0.04290284588932991,0.05067364498972893,0.009960060939192772,-0.04895470663905144,-0.0326639860868454,-0.015066822059452534,-0.0264259185642004,-0.018948860466480255,-0.02328323945403099,-0.00843625608831644,0.006972083356231451,-0.035773515701293945,-0.006667913403362036,0.022069787606596947,-0.02049044333398342,0.019401811063289642,-0.009870724752545357,0.010126091539859772,0.0005090183694846928,-0.0033257841132581234,-0.050630852580070496,0.009490112774074078,-0.03511277213692665,-0.00028824678156524897,-0.04272595793008804,-0.02639591693878174,-0.026351040229201317,0.03513181209564209,-0.035645946860313416,-0.07046925276517868,0.020229609683156013],[-0.008984102867543697,-0.049721673130989075,-0.08456273376941681,-0.060059286653995514,0.015295608900487423,-0.04662364348769188,0.03783683106303215,-0.07164707034826279,0.1222771480679512,0.09120341390371323,0.08791270852088928,0.024955784901976585,0.016459094360470772,-0.09214051812887192,-0.08498188853263855,-0.015155689790844917,0.009949364699423313,-0.02401287853717804,-0.014436600729823112,-0.09194201231002808,-0.02553406171500683,-0.03012898936867714,-0.09404638409614563,0.04438942298293114,0.02313409559428692,0.0010866662487387657,-0.03005043789744377,-0.026362212374806404,-0.05742926150560379,0.08994110673666,-0.04937446117401123,-0.04581449553370476,0.06759168952703476,-0.0491657592356205,-0.09531881660223007,0.06512463837862015,-0.04567752778530121,-0.028910426422953606,0.04239591956138611,-0.1182500422000885,-0.08506195992231369,0.10193872451782227,0.017856890335679054,-0.012361083179712296,-0.06909318268299103,0.04130689427256584,-0.06640400737524033,0.025576749816536903,-0.06817757338285446,0.022607209160923958,0.05241081491112709,0.09249714761972427,-0.05843838304281235,0.004605825059115887,-0.08985397964715958,0.025549473240971565,0.09397763758897781,-0.010876976884901524,0.07944260537624359,0.0035074546467512846,0.015354289673268795,0.06982278823852539,-0.005289516411721706,0.051678866147994995],[-0.004525437485426664,0.03314140439033508,0.02423638105392456,-0.005465047433972359,0.04887116700410843,0.06982836127281189,0.06243995204567909,-0.05664690211415291,0.02546042576432228,-0.05558207258582115,-0.014398298226296902,0.07050148397684097,-0.04484634846448898,0.0033323862589895725,-0.025047913193702698,-0.04355263710021973,-0.007933623157441616,0.0837487056851387,0.04695355147123337,0.0724014863371849,-0.006765870377421379,0.07543116807937622,-0.06977863609790802,0.04273916780948639,0.04119829460978508,-0.051442187279462814,-0.060985859483480453,-0.02324279025197029,-0.040722183883190155,-0.05388537421822548,0.045329414308071136,-0.038325127214193344,-0.01386235747486353,-0.0530119389295578,0.04350552335381508,-0.012361042201519012,-0.02526644989848137,-0.04483208432793617,-0.026123151183128357,0.022448936477303505,-0.040885891765356064,0.04264926537871361,-0.003796472679823637,0.08759431540966034,-0.050915371626615524,-0.011247275397181511,-0.06081221252679825,0.07276559621095657,0.031188882887363434,0.023905891925096512,-0.05983874946832657,-0.01104248221963644,0.04138726368546486,0.07580375671386719,-0.062167517840862274,-0.06464894860982895,0.042206767946481705,0.020453516393899918,0.010007569566369057,0.03881971165537834,-0.09232188016176224,0.0786578431725502,0.046289727091789246,-0.02561418153345585],[-0.0028806200716644526,-0.07058914750814438,0.05660239979624748,-0.05149633437395096,-0.02962515875697136,-0.021308988332748413,0.0066145919263362885,0.03923740237951279,0.013176086358726025,0.028644146397709846,-0.030232984572649002,-0.015545499511063099,-0.006313886493444443,0.028865622356534004,0.03170900046825409,0.11807475239038467,-0.06437620520591736,0.0027484542224556208,-0.05479665473103523,-0.07440769672393799,-0.027742914855480194,-0.07501291483640671,-0.002418253803625703,-0.0018893772503361106,0.03210224583745003,0.06081846356391907,-0.015025711618363857,0.06586101651191711,0.04756544157862663,-0.028963185846805573,-0.019527418538928032,0.0033530592918395996,0.06205582991242409,0.05821746960282326,0.10249512642621994,-0.00858051422983408,-0.02098534256219864,-0.07667072117328644,0.08375469595193863,-0.03612370416522026,0.03088459186255932,-0.010468672029674053,0.0505305677652359,0.0019253612263128161,0.08773355931043625,0.004591624718159437,-0.01299633551388979,-0.035905130207538605,0.03161652758717537,0.0149166164919734,-0.0336177758872509,-0.028441838920116425,-0.06419377774000168,0.05356786027550697,-0.0481075718998909,0.015295818448066711,0.018729228526353836,-0.01666070520877838,-0.014394163154065609,-0.025881152600049973,-0.028614819049835205,0.0464526005089283,-0.03320368751883507,-0.03569098189473152],[0.005668733734637499,0.07038585841655731,-0.05479680374264717,0.015500152483582497,-0.028074385598301888,0.02838831953704357,-0.07108284533023834,0.034117549657821655,-0.02784126251935959,-0.005809486843645573,0.08255654573440552,0.024332331493496895,0.10769268870353699,0.043515801429748535,-0.07220916450023651,0.008051594719290733,0.050244297832250595,-0.027045467868447304,0.0861908495426178,0.04225018620491028,0.02481842041015625,-0.024116868153214455,-0.02876279316842556,0.06769322603940964,0.09628748148679733,-0.07302741706371307,0.007294449023902416,0.0018093031831085682,0.11777728796005249,0.055338870733976364,-0.047777581959962845,-0.04433658719062805,0.08102761209011078,-0.04389842599630356,-0.05376073345541954,0.04914546757936478,0.08265143632888794,0.012323395349085331,-0.05889284610748291,-0.08184048533439636,-0.0406934916973114,0.006023905239999294,-0.03615717589855194,-0.025148378685116768,-0.00917080044746399,-0.04284234344959259,0.04491632431745529,0.006902810651808977,0.008286796510219574,0.0854429304599762,0.03636319935321808,0.026418587192893028,-0.0945095643401146,0.04473649337887764,-0.0022277752868831158,-0.03650639206171036,0.011102194897830486,0.06135929375886917,0.08119592070579529,0.04827851057052612,-0.021104885265231133,0.08675169199705124,-0.013233703561127186,0.030100133270025253]],[[0.04021536186337471,-0.05563116446137428,-0.08947402983903885,-0.08098724484443665,0.10304027050733566,0.029996057972311974,0.04566594213247299,-0.00031890542595647275,-0.036775752902030945,0.02250138856470585,-0.028967468068003654,0.04187740758061409,